{"learner":{"attributes":{"scikit_learn":"{\"_estimator_type\": \"regressor\"}"},"feature_names":["Company","Model","Year","Weight","Volume","Cylinders","WheelSize","FuelType","Transmission","Engine","EngineSize","VehicleClass","TireType","Horsepower","Torque","Price","Drivetrain"],"feature_types":["int","int","int","int","int","int","int","int","int","int","int","int","int","int","int","int","int"],"gradient_booster":{"model":{"gbtree_model_param":{"num_parallel_tree":"1","num_trees":"300"},"iteration_indptr":[0,1,2,3,4,5,6,7,8,9,10,11,12,13,14,15,16,17,18,19,20,21,22,23,24,25,26,27,28,29,30,31,32,33,34,35,36,37,38,39,40,41,42,43,44,45,46,47,48,49,50,51,52,53,54,55,56,57,58,59,60,61,62,63,64,65,66,67,68,69,70,71,72,73,74,75,76,77,78,79,80,81,82,83,84,85,86,87,88,89,90,91,92,93,94,95,96,97,98,99,100,101,102,103,104,105,106,107,108,109,110,111,112,113,114,115,116,117,118,119,120,121,122,123,124,125,126,127,128,129,130,131,132,133,134,135,136,137,138,139,140,141,142,143,144,145,146,147,148,149,150,151,152,153,154,155,156,157,158,159,160,161,162,163,164,165,166,167,168,169,170,171,172,173,174,175,176,177,178,179,180,181,182,183,184,185,186,187,188,189,190,191,192,193,194,195,196,197,198,199,200,201,202,203,204,205,206,207,208,209,210,211,212,213,214,215,216,217,218,219,220,221,222,223,224,225,226,227,228,229,230,231,232,233,234,235,236,237,238,239,240,241,242,243,244,245,246,247,248,249,250,251,252,253,254,255,256,257,258,259,260,261,262,263,264,265,266,267,268,269,270,271,272,273,274,275,276,277,278,279,280,281,282,283,284,285,286,287,288,289,290,291,292,293,294,295,296,297,298,299,300],"tree_info":[0,0,0,0,0,0,0,0,0,0,0,0,0,0,0,0,0,0,0,0,0,0,0,0,0,0,0,0,0,0,0,0,0,0,0,0,0,0,0,0,0,0,0,0,0,0,0,0,0,0,0,0,0,0,0,0,0,0,0,0,0,0,0,0,0,0,0,0,0,0,0,0,0,0,0,0,0,0,0,0,0,0,0,0,0,0,0,0,0,0,0,0,0,0,0,0,0,0,0,0,0,0,0,0,0,0,0,0,0,0,0,0,0,0,0,0,0,0,0,0,0,0,0,0,0,0,0,0,0,0,0,0,0,0,0,0,0,0,0,0,0,0,0,0,0,0,0,0,0,0,0,0,0,0,0,0,0,0,0,0,0,0,0,0,0,0,0,0,0,0,0,0,0,0,0,0,0,0,0,0,0,0,0,0,0,0,0,0,0,0,0,0,0,0,0,0,0,0,0,0,0,0,0,0,0,0,0,0,0,0,0,0,0,0,0,0,0,0,0,0,0,0,0,0,0,0,0,0,0,0,0,0,0,0,0,0,0,0,0,0,0,0,0,0,0,0,0,0,0,0,0,0,0,0,0,0,0,0,0,0,0,0,0,0,0,0,0,0,0,0,0,0,0,0,0,0,0,0,0,0,0,0,0,0,0,0,0,0,0,0,0,0,0,0,0,0,0,0,0,0],"trees":[{"base_weights":[-5.0259966E-2,2.4319963E0,-4.9755945E0,1.4488119E1,1.6147162E0,-4.0899377E0,-1.7643954E0,2.0055096E0,6.4366736E0,1.8109915E0,2.9259717E-1,-1.0514052E0,-2.2611573E0],"categories":[],"categories_nodes":[],"categories_segments":[],"categories_sizes":[],"default_left":[0,0,0,0,0,0,0,0,0,0,0,0,0],"id":0,"left_children":[1,3,5,7,9,11,-1,-1,-1,-1,-1,-1,-1],"loss_changes":[4.670185E3,2.4793262E3,7.862207E1,7.264519E2,6.698473E2,1.10775635E2,0E0,0E0,0E0,0E0,0E0,0E0,0E0],"parents":[2147483647,0,0,1,1,2,2,3,3,4,4,5,5],"right_children":[2,4,6,8,10,12,-1,-1,-1,-1,-1,-1,-1],"split_conditions":[6E0,1.6E1,4.5E3,5E0,3E3,4.6E1,-1.7643954E0,2.0055096E0,6.4366736E0,1.8109915E0,2.9259717E-1,-1.0514052E0,-2.2611573E0],"split_indices":[5,6,3,1,3,1,0,0,0,0,0,0,0],"split_type":[0,0,0,0,0,0,0,0,0,0,0,0,0],"sum_hessian":[3.8E2,2.53E2,1.27E2,1.5E1,2.38E2,6.7E1,6E1,8E0,7E0,2.9E1,2.09E2,5.9E1,8E0],"tree_param":{"num_deleted":"0","num_feature":"17","num_nodes":"13","size_leaf_vector":"1"}},{"base_weights":[5.3730268E-2,1.8258023E0,-3.3284967E0,1.3574595E0,4.7470465E0,-1.5164834E0,-3.6606402E0,1.2053821E0,1.7281899E-1,-7.439822E-1,-1.520822E-1,-1.3104923E0,-8.268941E-1],"categories":[],"categories_nodes":[],"categories_segments":[],"categories_sizes":[],"default_left":[0,0,0,0,0,0,0,0,0,0,0,0,0],"id":1,"left_children":[1,3,5,7,-1,9,11,-1,-1,-1,-1,-1,-1],"loss_changes":[2.2836262E3,1.617449E3,7.329077E1,5.0285562E2,0E0,2.0141132E1,5.8355347E1,0E0,0E0,0E0,0E0,0E0,0E0],"parents":[2147483647,0,0,1,1,2,2,3,3,5,5,6,6],"right_children":[2,4,6,8,-1,10,12,-1,-1,-1,-1,-1,-1],"split_conditions":[3E0,1E0,2.61E2,1.71E2,4.7470465E0,2.8E1,1.25E2,1.2053821E0,1.7281899E-1,-7.439822E-1,-1.520822E-1,-1.3104923E0,-8.268941E-1],"split_indices":[9,7,14,13,0,1,4,0,0,0,0,0,0],"split_type":[0,0,0,0,0,0,0,0,0,0,0,0,0],"sum_hessian":[3.79E2,2.49E2,1.3E2,2.42E2,7E0,2.1E1,1.09E2,5.4E1,1.88E2,1E1,1.1E1,5.9E1,5E1],"tree_param":{"num_deleted":"0","num_feature":"17","num_nodes":"13","size_leaf_vector":"1"}},{"base_weights":[-1.1979213E-1,1.1454985E0,-2.4592035E0,9.4398713E-1,3.200866E0,-2.642126E0,1.06389366E-1,-1.1288404E-1,6.08652E-1,-9.479904E-1,-4.9538907E-1],"categories":[],"categories_nodes":[],"categories_segments":[],"categories_sizes":[],"default_left":[0,0,0,0,0,0,0,0,0,0,0],"id":2,"left_children":[1,3,5,7,-1,9,-1,-1,-1,-1,-1],"loss_changes":[1.1217104E3,4.6205276E2,6.939398E1,3.4737894E2,0E0,5.8918518E1,0E0,0E0,0E0,0E0,0E0],"parents":[2147483647,0,0,1,1,2,2,3,3,5,5],"right_children":[2,4,6,8,-1,10,-1,-1,-1,-1,-1],"split_conditions":[6E0,1E0,1E1,4E0,3.200866E0,2E0,1.06389366E-1,-1.1288404E-1,6.08652E-1,-9.479904E-1,-4.9538907E-1],"split_indices":[5,7,0,11,0,16,0,0,0,0,0],"split_type":[0,0,0,0,0,0,0,0,0,0,0],"sum_hessian":[3.77E2,2.45E2,1.32E2,2.41E2,4E0,1.24E2,8E0,1.09E2,1.32E2,8E1,4.4E1],"tree_param":{"num_deleted":"0","num_feature":"17","num_nodes":"11","size_leaf_vector":"1"}},{"base_weights":[3.757893E-2,1.6843772E0,-1.19398E0,1.3674386E0,2.606419E0,5.481183E-1,-1.5119559E0,8.070486E-1,2.4793752E-1,3.8575795E-1,8.4571116E-2,-3.655414E-1,-7.2525233E-1],"categories":[],"categories_nodes":[],"categories_segments":[],"categories_sizes":[],"default_left":[0,0,0,0,0,0,0,0,0,0,0,0,0],"id":3,"left_children":[1,3,5,7,-1,9,11,-1,-1,-1,-1,-1,-1],"loss_changes":[7.86897E2,3.5659625E2,1.23804596E2,1.12267456E2,0E0,6.511425E0,4.701825E1,0E0,0E0,0E0,0E0,0E0,0E0],"parents":[2147483647,0,0,1,1,2,2,3,3,5,5,6,6],"right_children":[2,4,6,8,-1,10,12,-1,-1,-1,-1,-1,-1],"split_conditions":[2.03E2,1E0,7E0,1.48E2,2.606419E0,1E0,9E0,8.070486E-1,2.4793752E-1,3.8575795E-1,8.4571116E-2,-3.655414E-1,-7.2525233E-1],"split_indices":[14,7,1,14,0,1,10,0,0,0,0,0,0],"split_type":[0,0,0,0,0,0,0,0,0,0,0,0,0],"sum_hessian":[3.86E2,1.65E2,2.21E2,1.59E2,6E0,3.4E1,1.87E2,4.5E1,1.14E2,8E0,2.6E1,1.43E2,4.4E1],"tree_param":{"num_deleted":"0","num_feature":"17","num_nodes":"13","size_leaf_vector":"1"}},{"base_weights":[2.681809E-2,9.7299284E-1,-8.600646E-1,4.1980915E0,7.561941E-1,3.7018102E-1,-1.046658E0,7.5969285E-1,1.8071175E0,-6.7696352E-3,3.7846163E-1,-1.5949488E-1,1.7680392E-1,-3.3469117E-1,1.7275429E-1],"categories":[],"categories_nodes":[],"categories_segments":[],"categories_sizes":[],"default_left":[0,0,0,0,0,0,0,0,0,0,0,0,0,0,0],"id":4,"left_children":[1,3,5,7,9,11,13,-1,-1,-1,-1,-1,-1,-1,-1],"loss_changes":[3.3649527E2,1.3246971E2,4.7905487E1,2.123935E1,7.204664E1,5.847526E0,2.0787857E1,0E0,0E0,0E0,0E0,0E0,0E0,0E0,0E0],"parents":[2147483647,0,0,1,1,2,2,3,3,4,4,5,5,6,6],"right_children":[2,4,6,8,10,12,14,-1,-1,-1,-1,-1,-1,-1,-1],"split_conditions":[2.14E2,1.6E1,7E0,7E0,4E0,2E0,1E1,7.5969285E-1,1.8071175E0,-6.7696352E-3,3.7846163E-1,-1.5949488E-1,1.7680392E-1,-3.3469117E-1,1.7275429E-1],"split_indices":[13,6,1,0,11,0,0,0,0,0,0,0,0,0,0],"split_type":[0,0,0,0,0,0,0,0,0,0,0,0,0,0,0],"sum_hessian":[3.99E2,1.93E2,2.06E2,1.1E1,1.82E2,2.7E1,1.79E2,7E0,4E0,7.2E1,1.1E2,5E0,2.2E1,1.72E2,7E0],"tree_param":{"num_deleted":"0","num_feature":"17","num_nodes":"15","size_leaf_vector":"1"}},{"base_weights":[3.854165E-3,1.9420725E0,-3.305281E-1,1.4331638E0,1.5021663E0,8.462348E-2,-1.1726019E0,6.121632E-1,1.5364988E-1,2.5684905E-1,-3.7069146E-2,-2.5402656E-1,-8.2203597E-1],"categories":[],"categories_nodes":[],"categories_segments":[],"categories_sizes":[],"default_left":[0,0,0,0,0,0,0,0,0,0,0,0,0],"id":5,"left_children":[1,3,5,7,-1,9,11,-1,-1,-1,-1,-1,-1],"loss_changes":[2.5988428E2,8.48568E1,1.1965843E2,2.8043472E1,0E0,3.7049503E1,5.5396866E1,0E0,0E0,0E0,0E0,0E0,0E0],"parents":[2147483647,0,0,1,1,2,2,3,3,5,5,6,6],"right_children":[2,4,6,8,-1,10,12,-1,-1,-1,-1,-1,-1],"split_conditions":[1.72E2,1E0,4E3,1.6E1,1.5021663E0,8E0,1E0,6.121632E-1,1.5364988E-1,2.5684905E-1,-3.7069146E-2,-2.5402656E-1,-8.2203597E-1],"split_indices":[14,9,3,1,0,1,12,0,0,0,0,0,0],"split_type":[0,0,0,0,0,0,0,0,0,0,0,0,0],"sum_hessian":[3.99E2,5.8E1,3.41E2,5.1E1,7E0,2.29E2,1.12E2,3E1,2.1E1,4.8E1,1.81E2,9.4E1,1.8E1],"tree_param":{"num_deleted":"0","num_feature":"17","num_nodes":"13","size_leaf_vector":"1"}},{"base_weights":[5.8698386E-2,8.1055826E-1,-4.5151395E-1,6.26244E-1,1.1254324E0,-2.92591E-1,-1.1559168E0,2.9593492E-1,6.651142E-2,-4.0361375E-2,-2.9525423E-1,-4.816749E-1,3.0614091E-2],"categories":[],"categories_nodes":[],"categories_segments":[],"categories_sizes":[],"default_left":[0,0,0,0,0,0,0,0,0,0,0,0,0],"id":6,"left_children":[1,3,5,7,-1,9,11,-1,-1,-1,-1,-1,-1],"loss_changes":[1.4805511E2,8.220994E1,2.5409313E1,2.1347466E1,0E0,2.0526781E1,2.3921722E1,0E0,0E0,0E0,0E0,0E0,0E0],"parents":[2147483647,0,0,1,1,2,2,3,3,5,5,6,6],"right_children":[2,4,6,8,-1,10,12,-1,-1,-1,-1,-1,-1],"split_conditions":[2E0,1E0,9E0,7E0,1.1254324E0,2.85E2,4.59E2,2.9593492E-1,6.651142E-2,-4.0361375E-2,-2.9525423E-1,-4.816749E-1,3.0614091E-2],"split_indices":[9,7,10,0,0,14,13,0,0,0,0,0,0],"split_type":[0,0,0,0,0,0,0,0,0,0,0,0,0],"sum_hessian":[3.84E2,1.55E2,2.29E2,1.47E2,8E0,1.88E2,4.1E1,7.7E1,7E1,1.54E2,3.4E1,3E1,1.1E1],"tree_param":{"num_deleted":"0","num_feature":"17","num_nodes":"13","size_leaf_vector":"1"}},{"base_weights":[-1.725346E-2,-1.595124E-1,1.4342806E0,3.8431796E-1,-4.4347674E-1,7.9584175E-1,1.0906959E0,4.936576E-1,4.995752E-2,-6.2421404E-2,-2.4410997E-1,4.7007203E-1,2.6038536E-1],"categories":[],"categories_nodes":[],"categories_segments":[],"categories_sizes":[],"default_left":[0,0,0,0,0,0,0,0,0,0,0,0,0],"id":7,"left_children":[1,3,5,7,9,-1,11,-1,-1,-1,-1,-1,-1],"loss_changes":[8.096781E1,5.5301384E1,1.1759933E1,3.351186E1,2.0311535E1,0E0,1.7161293E0,0E0,0E0,0E0,0E0,0E0,0E0],"parents":[2147483647,0,0,1,1,2,2,3,3,4,4,6,6],"right_children":[2,4,6,8,10,-1,12,-1,-1,-1,-1,-1,-1],"split_conditions":[1E1,2.762E4,1.6E1,8E0,1.15E2,7.9584175E-1,1E1,4.936576E-1,4.995752E-2,-6.2421404E-2,-2.4410997E-1,4.7007203E-1,2.6038536E-1],"split_indices":[0,15,6,1,4,0,1,0,0,0,0,0,0],"split_type":[0,0,0,0,0,0,0,0,0,0,0,0,0],"sum_hessian":[3.9E2,3.56E2,3.4E1,1.22E2,2.34E2,6E0,2.8E1,1.7E1,1.05E2,1.44E2,9E1,7E0,2.1E1],"tree_param":{"num_deleted":"0","num_feature":"17","num_nodes":"13","size_leaf_vector":"1"}},{"base_weights":[2.0908171E-2,7.8910536E-1,-1.1485393E-1,1.0007287E0,-1.4933167E-1,3.43358E-3,-6.6625226E-1,2.3825096E-1,6.035135E-1,-4.4601634E-1,1.4321305E-2,-2.413034E-1,1.4234506E-1],"categories":[],"categories_nodes":[],"categories_segments":[],"categories_sizes":[],"default_left":[0,0,0,0,0,0,0,0,0,0,0,0,0],"id":8,"left_children":[1,3,5,7,-1,9,11,-1,-1,-1,-1,-1,-1],"loss_changes":[4.0973125E1,1.6565807E1,2.178695E1,9.052559E0,0E0,1.8292482E1,9.675737E0,0E0,0E0,0E0,0E0,0E0,0E0],"parents":[2147483647,0,0,1,1,2,2,3,3,5,5,6,6],"right_children":[2,4,6,8,-1,10,12,-1,-1,-1,-1,-1,-1],"split_conditions":[1.72E2,5E0,4.5E3,1E0,-1.4933167E-1,1E0,4.4E1,2.3825096E-1,6.035135E-1,-4.4601634E-1,1.4321305E-2,-2.413034E-1,1.4234506E-1],"split_indices":[14,11,3,9,0,16,1,0,0,0,0,0,0],"split_type":[0,0,0,0,0,0,0,0,0,0,0,0,0],"sum_hessian":[3.91E2,5.8E1,3.33E2,5E1,8E0,2.75E2,5.8E1,4.3E1,7E0,7E0,2.68E2,5.2E1,6E0],"tree_param":{"num_deleted":"0","num_feature":"17","num_nodes":"13","size_leaf_vector":"1"}},{"base_weights":[1.5573477E-2,-7.800613E-2,8.717875E-1,2.6504838E-1,-2.5064704E-1,1.107004E0,1.607604E-1,1.565604E-1,-6.729831E-2,-5.5782296E-2,-2.2482787E-1,1.3986368E-1,4.1248783E-1],"categories":[],"categories_nodes":[],"categories_segments":[],"categories_sizes":[],"default_left":[0,0,0,0,0,0,0,0,0,0,0,0,0],"id":9,"left_children":[1,3,5,7,9,11,-1,-1,-1,-1,-1,-1,-1],"loss_changes":[3.1717052E1,2.1209846E1,2.488329E0,1.5198832E1,7.541872E0,3.1364555E0,0E0,0E0,0E0,0E0,0E0,0E0,0E0],"parents":[2147483647,0,0,1,1,2,2,3,3,4,4,5,5],"right_children":[2,4,6,8,10,12,-1,-1,-1,-1,-1,-1,-1],"split_conditions":[1E1,2.76E4,3.4E3,7E0,5E3,3E3,1.607604E-1,1.565604E-1,-6.729831E-2,-5.5782296E-2,-2.2482787E-1,1.3986368E-1,4.1248783E-1],"split_indices":[0,15,3,0,3,3,0,0,0,0,0,0,0],"split_type":[0,0,0,0,0,0,0,0,0,0,0,0,0],"sum_hessian":[3.94E2,3.56E2,3.8E1,1.19E2,2.37E2,2.1E1,1.7E1,7.8E1,4.1E1,2.11E2,2.6E1,7E0,1.4E1],"tree_param":{"num_deleted":"0","num_feature":"17","num_nodes":"13","size_leaf_vector":"1"}},{"base_weights":[1.574943E-2,-5.3698603E-2,6.6886944E-1,7.357581E-2,-3.3680388E-1,3.4216005E-1,5.103583E-1,-3.3172753E-2,1.649333E-1,-3.1585664E-1,-3.7150804E-2,2.383657E-1,1.13088734E-1],"categories":[],"categories_nodes":[],"categories_segments":[],"categories_sizes":[],"default_left":[0,0,0,0,0,0,0,0,0,0,0,0,0],"id":10,"left_children":[1,3,5,7,9,-1,11,-1,-1,-1,-1,-1,-1],"loss_changes":[1.8405867E1,1.3248548E1,2.3337154E0,2.2334902E1,1.7254158E1,0E0,8.757038E-1,0E0,0E0,0E0,0E0,0E0,0E0],"parents":[2147483647,0,0,1,1,2,2,3,3,4,4,6,6],"right_children":[2,4,6,8,10,-1,12,-1,-1,-1,-1,-1,-1],"split_conditions":[1E1,7E0,1.6E1,5E0,1.3E1,3.4216005E-1,1E1,-3.3172753E-2,1.649333E-1,-3.1585664E-1,-3.7150804E-2,2.383657E-1,1.13088734E-1],"split_indices":[0,0,6,0,1,0,1,0,0,0,0,0,0],"split_type":[0,0,0,0,0,0,0,0,0,0,0,0,0],"sum_hessian":[4.04E2,3.66E2,3.8E1,2.53E2,1.13E2,8E0,3E1,1.83E2,7E1,2.5E1,8.8E1,8E0,2.2E1],"tree_param":{"num_deleted":"0","num_feature":"17","num_nodes":"13","size_leaf_vector":"1"}},{"base_weights":[-6.4654173E-3,5.7624493E-2,-6.288684E-1,4.4806325E-1,-2.934622E-2,-8.7982965E-1,1.9388962E-1,-7.986216E-2,1.874437E-1,-2.3151638E-1,1.306522E-2,8.7210275E-2,-2.8080925E-1,4.005432E-5,1.3081542E-1],"categories":[],"categories_nodes":[],"categories_segments":[],"categories_sizes":[],"default_left":[0,0,0,0,0,0,0,0,0,0,0,0,0,0,0],"id":11,"left_children":[1,3,5,7,9,11,13,-1,-1,-1,-1,-1,-1,-1,-1],"loss_changes":[1.4955004E1,1.1558441E1,7.3974047E0,7.993619E0,1.5132217E1,2.0483055E0,4.2222464E-1,0E0,0E0,0E0,0E0,0E0,0E0,0E0,0E0],"parents":[2147483647,0,0,1,1,2,2,3,3,4,4,5,5,6,6],"right_children":[2,4,6,8,10,12,14,-1,-1,-1,-1,-1,-1,-1,-1],"split_conditions":[3.56E2,1E1,4.66E2,2E0,1.3E1,2.011E3,1E0,-7.986216E-2,1.874437E-1,-2.3151638E-1,1.306522E-2,8.7210275E-2,-2.8080925E-1,4.005432E-5,1.3081542E-1],"split_indices":[13,1,13,0,1,2,0,0,0,0,0,0,0,0,0],"split_type":[0,0,0,0,0,0,0,0,0,0,0,0,0,0,0],"sum_hessian":[3.73E2,3.39E2,3.4E1,6.1E1,2.78E2,2.6E1,8E0,1.2E1,4.9E1,2.4E1,2.54E2,1E0,2.5E1,5E0,3E0],"tree_param":{"num_deleted":"0","num_feature":"17","num_nodes":"15","size_leaf_vector":"1"}},{"base_weights":[2.8822275E-2,1.1937477E-1,-2.8584066E-1,7.64669E-2,8.815737E-1,-6.260441E-2,-9.425566E-1,1.172227E-1,-9.769527E-3,8.286524E-2,3.9651465E-1,-2.845357E-1,1.2536374E-2,-1.591487E-1,-3.0976364E-1],"categories":[],"categories_nodes":[],"categories_segments":[],"categories_sizes":[],"default_left":[0,0,0,0,0,0,0,0,0,0,0,0,0,0,0],"id":12,"left_children":[1,3,5,7,9,11,13,-1,-1,-1,-1,-1,-1,-1,-1],"loss_changes":[1.1089605E1,9.809296E0,1.2695437E1,9.847088E0,3.8979998E0,6.143031E0,2.6801872E-1,0E0,0E0,0E0,0E0,0E0,0E0,0E0,0E0],"parents":[2147483647,0,0,1,1,2,2,3,3,4,4,5,5,6,6],"right_children":[2,4,6,8,10,12,14,-1,-1,-1,-1,-1,-1,-1,-1],"split_conditions":[8E0,6E0,3.3E1,1E2,7E0,9E0,4E0,1.172227E-1,-9.769527E-3,8.286524E-2,3.9651465E-1,-2.845357E-1,1.2536374E-2,-1.591487E-1,-3.0976364E-1],"split_indices":[10,9,1,4,0,1,0,0,0,0,0,0,0,0,0],"split_type":[0,0,0,0,0,0,0,0,0,0,0,0,0,0,0],"sum_hessian":[3.87E2,3.01E2,8.6E1,2.86E2,1.5E1,6.5E1,2.1E1,7.3E1,2.13E2,7E0,8E0,6E0,5.9E1,5E0,1.6E1],"tree_param":{"num_deleted":"0","num_feature":"17","num_nodes":"15","size_leaf_vector":"1"}},{"base_weights":[9.179036E-3,2.9962826E-1,-5.539523E-2,-1.9974579E-1,5.2700275E-1,3.217077E-1,-1.2854601E-1,-2.6778338E-2,-1.145809E-1,7.1498886E-2,2.0049219E-1,2.594483E-1,1.926979E-2,-1.9189034E-1,-1.8220121E-2],"categories":[],"categories_nodes":[],"categories_segments":[],"categories_sizes":[],"default_left":[0,0,0,0,0,0,0,0,0,0,0,0,0,0,0],"id":13,"left_children":[1,3,5,7,9,11,13,-1,-1,-1,-1,-1,-1,-1,-1],"loss_changes":[7.0124164E0,7.8263216E0,8.482479E0,4.087516E-1,1.7578907E0,6.936442E0,8.868277E0,0E0,0E0,0E0,0E0,0E0,0E0,0E0,0E0],"parents":[2147483647,0,0,1,1,2,2,3,3,4,4,5,5,6,6],"right_children":[2,4,6,8,10,12,14,-1,-1,-1,-1,-1,-1,-1,-1],"split_conditions":[3.2E3,9.5E1,8E0,7E0,1.4E1,3.4E3,1.3E1,-2.6778338E-2,-1.145809E-1,7.1498886E-2,2.0049219E-1,2.594483E-1,1.926979E-2,-1.9189034E-1,-1.8220121E-2],"split_indices":[3,4,1,0,1,3,1,0,0,0,0,0,0,0,0],"split_type":[0,0,0,0,0,0,0,0,0,0,0,0,0,0,0],"sum_hessian":[3.72E2,6.7E1,3.05E2,2.1E1,4.6E1,4.9E1,2.56E2,1.4E1,7E0,1.6E1,3E1,1.5E1,3.4E1,2.9E1,2.27E2],"tree_param":{"num_deleted":"0","num_feature":"17","num_nodes":"15","size_leaf_vector":"1"}},{"base_weights":[-5.1650335E-3,-4.4360045E-2,3.618873E-1,-9.542329E-3,-4.1381913E-1,2.082011E-2,4.4297642E-1,2.6168555E-2,-6.0339388E-2,5.847931E-4,-1.6385932E-1,1.7763144E-1,8.2277454E-2],"categories":[],"categories_nodes":[],"categories_segments":[],"categories_sizes":[],"default_left":[0,0,0,0,0,0,0,0,0,0,0,0,0],"id":14,"left_children":[1,3,5,7,9,-1,11,-1,-1,-1,-1,-1,-1],"loss_changes":[5.3678765E0,4.3311253E0,8.230877E-1,5.7464743E0,1.5971913E0,0E0,5.42109E-1,0E0,0E0,0E0,0E0,0E0,0E0],"parents":[2147483647,0,0,1,1,2,2,3,3,4,4,6,6],"right_children":[2,4,6,8,10,-1,12,-1,-1,-1,-1,-1,-1],"split_conditions":[1E1,1.4E2,3E3,7E0,3E0,2.082011E-2,3.4E3,2.6168555E-2,-6.0339388E-2,5.847931E-4,-1.6385932E-1,1.7763144E-1,8.2277454E-2],"split_indices":[0,4,3,0,11,0,3,0,0,0,0,0,0],"split_type":[0,0,0,0,0,0,0,0,0,0,0,0,0],"sum_hessian":[3.71E2,3.36E2,3.5E1,3.08E2,2.8E1,8E0,2.7E1,2.05E2,1.03E2,7E0,2.1E1,1.3E1,1.4E1],"tree_param":{"num_deleted":"0","num_feature":"17","num_nodes":"13","size_leaf_vector":"1"}},{"base_weights":[-2.555157E-3,2.252558E-1,-5.0957E-2,-1.3015233E-1,3.98063E-1,-7.907939E-2,2.9918075E-1,-1.2487285E-2,-5.23777E-2,1.6491398E-1,5.7405036E-2,-3.9793993E-3,-7.5444184E-2,1.3122457E-1,6.0817517E-2],"categories":[],"categories_nodes":[],"categories_segments":[],"categories_sizes":[],"default_left":[0,0,0,0,0,0,0,0,0,0,0,0,0,0,0],"id":15,"left_children":[1,3,5,7,9,11,13,-1,-1,-1,-1,-1,-1,-1,-1],"loss_changes":[4.2787223E0,4.2281704E0,3.1746056E0,8.321902E-2,1.3368235E0,3.3665862E0,2.313292E-1,0E0,0E0,0E0,0E0,0E0,0E0,0E0,0E0],"parents":[2147483647,0,0,1,1,2,2,3,3,4,4,5,5,6,6],"right_children":[2,4,6,8,10,12,14,-1,-1,-1,-1,-1,-1,-1,-1],"split_conditions":[3.2E3,9.5E1,1E1,2E0,8E0,7E0,3.4E3,-1.2487285E-2,-5.23777E-2,1.6491398E-1,5.7405036E-2,-3.9793993E-3,-7.5444184E-2,1.3122457E-1,6.0817517E-2],"split_indices":[3,4,0,0,0,0,3,0,0,0,0,0,0,0,0],"split_type":[0,0,0,0,0,0,0,0,0,0,0,0,0,0,0],"sum_hessian":[3.86E2,6.7E1,3.19E2,2.2E1,4.5E1,2.96E2,2.3E1,8E0,1.4E1,2.5E1,2E1,2.15E2,8.1E1,8E0,1.5E1],"tree_param":{"num_deleted":"0","num_feature":"17","num_nodes":"15","size_leaf_vector":"1"}},{"base_weights":[-4.9225627E-3,1.36598945E-2,-1.5230991E-1,2.5212994E-1,-3.2307852E-2,-1.0763188E-2,1.7204005E-1,-1.3026677E-1,2.8941727E-3],"categories":[],"categories_nodes":[],"categories_segments":[],"categories_sizes":[],"default_left":[0,0,0,0,0,0,0,0,0],"id":16,"left_children":[1,3,-1,5,7,-1,-1,-1,-1],"loss_changes":[3.407727E0,3.866745E0,0E0,5.2957726E0,4.9954505E0,0E0,0E0,0E0,0E0],"parents":[2147483647,0,0,1,1,3,3,4,4],"right_children":[2,4,-1,6,8,-1,-1,-1,-1],"split_conditions":[1.1E1,1E1,-1.5230991E-1,5E0,1.3E1,-1.0763188E-2,1.7204005E-1,-1.3026677E-1,2.8941727E-3],"split_indices":[10,1,0,1,1,0,0,0,0],"split_type":[0,0,0,0,0,0,0,0,0],"sum_hessian":[3.63E2,3.51E2,1.2E1,5.6E1,2.95E2,3E1,2.6E1,2.7E1,2.68E2],"tree_param":{"num_deleted":"0","num_feature":"17","num_nodes":"9","size_leaf_vector":"1"}},{"base_weights":[3.75317E-6,2.2192316E-2,-2.843387E-1,4.125362E-2,-1.1205762E-1,-4.7167927E-1,-7.668822E-2,3.361663E-2,-1.9101556E-2,-1.500527E-1,-6.014023E-2,-4.6831187E-2,7.15971E-4],"categories":[],"categories_nodes":[],"categories_segments":[],"categories_sizes":[],"default_left":[0,0,0,0,0,0,0,0,0,0,0,0,0],"id":17,"left_children":[1,3,5,7,-1,9,11,-1,-1,-1,-1,-1,-1],"loss_changes":[2.3533142E0,2.6252506E0,1.0141644E0,2.4661052E0,0E0,7.930756E-3,8.828951E-2,0E0,0E0,0E0,0E0,0E0,0E0],"parents":[2147483647,0,0,1,1,2,2,3,3,5,5,6,6],"right_children":[2,4,6,8,-1,10,12,-1,-1,-1,-1,-1,-1],"split_conditions":[1.4E2,1.1E1,1.5E2,7E0,-1.1205762E-1,4.06E4,1E0,3.361663E-2,-1.9101556E-2,-1.500527E-1,-6.014023E-2,-4.6831187E-2,7.15971E-4],"split_indices":[4,10,4,0,0,15,0,0,0,0,0,0,0],"split_type":[0,0,0,0,0,0,0,0,0,0,0,0,0],"sum_hessian":[3.71E2,3.45E2,2.6E1,3.3E2,1.5E1,1.3E1,1.3E1,1.97E2,1.33E2,1.1E1,2E0,6E0,7E0],"tree_param":{"num_deleted":"0","num_feature":"17","num_nodes":"13","size_leaf_vector":"1"}},{"base_weights":[5.6014108E-3,-8.757903E-2,7.587772E-2,-5.2538174E-1,-3.5157792E-2,1.3644627E-1,-1.977928E-1,-1.7481995E-1,-5.369053E-2,-4.819804E-2,1.5220693E-2,2.4261186E-2,2.2716217E-1,-1.7935054E-1,-2.4808988E-2],"categories":[],"categories_nodes":[],"categories_segments":[],"categories_sizes":[],"default_left":[0,0,0,0,0,0,0,0,0,0,0,0,0,0,0],"id":18,"left_children":[1,3,5,7,9,11,13,-1,-1,-1,-1,-1,-1,-1,-1],"loss_changes":[2.573609E0,3.8601055E0,3.7399735E0,2.533207E-1,1.6466849E0,6.2866163E0,1.838338E0,0E0,0E0,0E0,0E0,0E0,0E0,0E0,0E0],"parents":[2147483647,0,0,1,1,2,2,3,3,4,4,5,5,6,6],"right_children":[2,4,6,8,10,12,14,-1,-1,-1,-1,-1,-1,-1,-1],"split_conditions":[5E0,1.84E2,8E0,2.76E4,2E0,7E0,4.2E3,-1.7481995E-1,-5.369053E-2,-4.819804E-2,1.5220693E-2,2.4261186E-2,2.2716217E-1,-1.7935054E-1,-2.4808988E-2],"split_indices":[0,14,10,15,0,10,3,0,0,0,0,0,0,0,0],"split_type":[0,0,0,0,0,0,0,0,0,0,0,0,0,0,0],"sum_hessian":[3.91E2,1.68E2,2.23E2,1.7E1,1.51E2,1.83E2,4E1,1.4E1,3E0,6.1E1,9E1,1.69E2,1.4E1,8E0,3.2E1],"tree_param":{"num_deleted":"0","num_feature":"17","num_nodes":"15","size_leaf_vector":"1"}},{"base_weights":[-1.2460193E-2,-5.3143565E-4,-1.2409558E-1,-5.391074E-2,6.359004E-2,-4.1393965E-2,5.9806127E-2,-3.4694746E-2,3.389264E-2],"categories":[],"categories_nodes":[],"categories_segments":[],"categories_sizes":[],"default_left":[0,0,0,0,0,0,0,0,0],"id":19,"left_children":[1,3,-1,5,7,-1,-1,-1,-1],"loss_changes":[1.823139E0,1.2732722E0,0E0,4.349728E0,1.5090199E0,0E0,0E0,0E0,0E0],"parents":[2147483647,0,0,1,1,3,3,4,4],"right_children":[2,4,-1,6,8,-1,-1,-1,-1],"split_conditions":[3E0,4E0,-1.2409558E-1,2.96E2,2E0,-4.1393965E-2,5.9806127E-2,-3.4694746E-2,3.389264E-2],"split_indices":[12,11,0,13,16,0,0,0,0],"split_type":[0,0,0,0,0,0,0,0,0],"sum_hessian":[3.8E2,3.7E2,1E1,2.02E2,1.68E2,1.52E2,5E1,3.6E1,1.32E2],"tree_param":{"num_deleted":"0","num_feature":"17","num_nodes":"9","size_leaf_vector":"1"}},{"base_weights":[1.9206967E-2,5.642714E-2,-8.7484494E-2,1.8271888E-2,2.0485826E-1,2.150762E-2,-1.3605969E-1,1.1469798E-2,-1.1532576E-1,-1.8550694E-3,1.3161978E-1,-2.5077987E-2,7.832669E-2,1.8417893E-2,-4.9859546E-2],"categories":[],"categories_nodes":[],"categories_segments":[],"categories_sizes":[],"default_left":[0,0,0,0,0,0,0,0,0,0,0,0,0,0,0],"id":20,"left_children":[1,3,5,7,9,11,13,-1,-1,-1,-1,-1,-1,-1,-1],"loss_changes":[1.5496845E0,1.6329873E0,5.376519E-1,1.8714808E0,2.914791E0,8.275921E-1,4.2677248E-1,0E0,0E0,0E0,0E0,0E0,0E0,0E0,0E0],"parents":[2147483647,0,0,1,1,2,2,3,3,4,4,5,5,6,6],"right_children":[2,4,6,8,10,12,14,-1,-1,-1,-1,-1,-1,-1,-1],"split_conditions":[1.15E2,1.1E2,4E0,3.8E3,3.8E3,3.34E2,4.3E3,1.1469798E-2,-1.1532576E-1,-1.8550694E-3,1.3161978E-1,-2.5077987E-2,7.832669E-2,1.8417893E-2,-4.9859546E-2],"split_indices":[4,4,9,3,3,13,3,0,0,0,0,0,0,0,0],"split_type":[0,0,0,0,0,0,0,0,0,0,0,0,0,0,0],"sum_hessian":[3.88E2,2.88E2,1E2,2.3E2,5.8E1,3.1E1,6.9E1,2.2E2,1E1,3.1E1,2.7E1,2.2E1,9E0,9E0,6E1],"tree_param":{"num_deleted":"0","num_feature":"17","num_nodes":"15","size_leaf_vector":"1"}},{"base_weights":[-6.7960885E-3,-7.1337655E-2,5.002075E-2,7.98807E-2,-1.9489989E-1,1.1136936E-1,-8.6659566E-2,4.830765E-2,-8.099317E-2,-2.779825E-1,-3.129296E-2,8.249569E-2,-4.751737E-2,3.820366E-2,-1.3024847E-1],"categories":[],"categories_nodes":[],"categories_segments":[],"categories_sizes":[],"default_left":[0,0,0,0,0,0,0,0,0,0,0,0,0,0,0],"id":21,"left_children":[1,3,5,7,9,11,13,-1,-1,-1,-1,-1,-1,-1,-1],"loss_changes":[1.4337169E0,3.4349015E0,1.7537618E0,2.3997726E0,6.5981803E0,6.3993144E0,4.889156E0,0E0,0E0,0E0,0E0,0E0,0E0,0E0,0E0],"parents":[2147483647,0,0,1,1,2,2,3,3,4,4,5,5,6,6],"right_children":[2,4,6,8,10,12,14,-1,-1,-1,-1,-1,-1,-1,-1],"split_conditions":[2.7E1,1.2E1,4.6E1,1.8E1,1.3E1,1.15E2,7E0,4.830765E-2,-8.099317E-2,-2.779825E-1,-3.129296E-2,8.249569E-2,-4.751737E-2,3.820366E-2,-1.3024847E-1],"split_indices":[1,1,1,6,1,4,0,0,0,0,0,0,0,0,0],"split_type":[0,0,0,0,0,0,0,0,0,0,0,0,0,0,0],"sum_hessian":[3.89E2,1.82E2,2.07E2,8.2E1,1E2,1.43E2,6.4E1,6.7E1,1.5E1,1E1,9E1,8.9E1,5.4E1,4E1,2.4E1],"tree_param":{"num_deleted":"0","num_feature":"17","num_nodes":"15","size_leaf_vector":"1"}},{"base_weights":[-7.5293537E-3,1.2303337E-1,-3.2239903E-2,-1.2027327E-1,2.1977168E-1,-2.4974786E-1,1.4490149E-2,-4.9483255E-2,-7.953808E-3,2.7169745E-2,9.7100906E-2,-1.5609027E-3,-1.0108843E-1,2.2009665E-2,-2.0135574E-2],"categories":[],"categories_nodes":[],"categories_segments":[],"categories_sizes":[],"default_left":[0,0,0,0,0,0,0,0,0,0,0,0,0,0,0],"id":22,"left_children":[1,3,5,7,9,11,13,-1,-1,-1,-1,-1,-1,-1,-1],"loss_changes":[1.2364042E0,1.4621942E0,3.2764778E0,7.101753E-2,5.613527E-1,1.2139213E0,1.2829866E0,0E0,0E0,0E0,0E0,0E0,0E0,0E0,0E0],"parents":[2147483647,0,0,1,1,2,2,3,3,4,4,5,5,6,6],"right_children":[2,4,6,8,10,12,14,-1,-1,-1,-1,-1,-1,-1,-1],"split_conditions":[3.2E3,9.5E1,1.84E2,3E3,2.204E4,2E0,2.71E2,-4.9483255E-2,-7.953808E-3,2.7169745E-2,9.7100906E-2,-1.5609027E-3,-1.0108843E-1,2.2009665E-2,-2.0135574E-2],"split_indices":[3,4,14,3,15,16,14,0,0,0,0,0,0,0,0],"split_type":[0,0,0,0,0,0,0,0,0,0,0,0,0,0,0],"sum_hessian":[3.81E2,6E1,3.21E2,1.7E1,4.3E1,5.6E1,2.65E2,1.1E1,6E0,2E1,2.3E1,1.5E1,4.1E1,1.54E2,1.11E2],"tree_param":{"num_deleted":"0","num_feature":"17","num_nodes":"15","size_leaf_vector":"1"}},{"base_weights":[-8.672801E-4,-1.2970868E-1,2.3897635E-2,-3.026805E-1,-7.058097E-2,-7.124266E-3,1.0902649E-1,-9.546883E-2,-1.0416985E-2,-3.373042E-2,-5.513863E-3,-4.948345E-3,1.3378349E-1,7.576552E-2,1.9938529E-2],"categories":[],"categories_nodes":[],"categories_segments":[],"categories_sizes":[],"default_left":[0,0,0,0,0,0,0,0,0,0,0,0,0,0,0],"id":23,"left_children":[1,3,5,7,9,11,13,-1,-1,-1,-1,-1,-1,-1,-1],"loss_changes":[1.2666352E0,6.3319194E-1,8.8018274E-1,5.561304E-2,1.0498999E-1,1.047468E0,5.269263E-1,0E0,0E0,0E0,0E0,0E0,0E0,0E0,0E0],"parents":[2147483647,0,0,1,1,2,2,3,3,4,4,5,5,6,6],"right_children":[2,4,6,8,10,12,14,-1,-1,-1,-1,-1,-1,-1,-1],"split_conditions":[2E0,3.996E4,2.018E3,1E0,4E0,4.62E2,1.81E2,-9.546883E-2,-1.0416985E-2,-3.373042E-2,-5.513863E-3,-4.948345E-3,1.3378349E-1,7.576552E-2,1.9938529E-2],"split_indices":[0,15,2,0,10,13,13,0,0,0,0,0,0,0,0],"split_type":[0,0,0,0,0,0,0,0,0,0,0,0,0,0,0],"sum_hessian":[3.95E2,6.3E1,3.32E2,1.5E1,4.8E1,2.44E2,8.8E1,1.4E1,1E0,2.6E1,2.2E1,2.4E2,4E0,1.9E1,6.9E1],"tree_param":{"num_deleted":"0","num_feature":"17","num_nodes":"15","size_leaf_vector":"1"}},{"base_weights":[8.620747E-3,-1.6257208E-2,1.02106616E-1,9.9776015E-2,-4.1632734E-2,5.341669E-1,-1.549325E-2,-1.2086133E-2,1.4839157E-1,3.1188676E-2,-2.6035434E-2,9.96036E-2,2.0982946E-1,2.2956276E-2,-9.40713E-2],"categories":[],"categories_nodes":[],"categories_segments":[],"categories_sizes":[],"default_left":[0,0,0,0,0,0,0,0,0,0,0,0,0,0,0],"id":24,"left_children":[1,3,5,7,9,11,13,-1,-1,-1,-1,-1,-1,-1,-1],"loss_changes":[9.2962915E-1,9.345856E-1,4.2763352E0,3.1723514E0,1.7182391E0,3.691435E-1,1.8616288E0,0E0,0E0,0E0,0E0,0E0,0E0,0E0,0E0],"parents":[2147483647,0,0,1,1,2,2,3,3,4,4,5,5,6,6],"right_children":[2,4,6,8,10,12,14,-1,-1,-1,-1,-1,-1,-1,-1],"split_conditions":[4.4E1,8E0,4.6E1,4E0,1E2,7E0,8E0,-1.2086133E-2,1.4839157E-1,3.1188676E-2,-2.6035434E-2,9.96036E-2,2.0982946E-1,2.2956276E-2,-9.40713E-2],"split_indices":[1,1,1,10,4,0,0,0,0,0,0,0,0,0,0],"split_type":[0,0,0,0,0,0,0,0,0,0,0,0,0,0,0],"sum_hessian":[3.98E2,3.15E2,8.3E1,5.6E1,2.59E2,1.7E1,6.6E1,4.2E1,1.4E1,6.1E1,1.98E2,9E0,8E0,5.1E1,1.5E1],"tree_param":{"num_deleted":"0","num_feature":"17","num_nodes":"15","size_leaf_vector":"1"}},{"base_weights":[3.6582851E-3,9.478063E-3,-9.683157E-2,-5.4941274E-2,3.0556435E-2,1.7447924E-2,-8.5948564E-2,-1.6114026E-2,1.5934167E-2],"categories":[],"categories_nodes":[],"categories_segments":[],"categories_sizes":[],"default_left":[0,0,0,0,0,0,0,0,0],"id":25,"left_children":[1,3,-1,5,7,-1,-1,-1,-1],"loss_changes":[7.5916016E-1,5.3395784E-1,0E0,2.5569942E0,5.655233E-1,0E0,0E0,0E0,0E0],"parents":[2147483647,0,0,1,1,3,3,4,4],"right_children":[2,4,-1,6,8,-1,-1,-1,-1],"split_conditions":[1.2E1,1.81E2,-9.683157E-2,1.7E1,2E0,1.7447924E-2,-8.5948564E-2,-1.6114026E-2,1.5934167E-2],"split_indices":[10,14,0,6,0,0,0,0,0],"split_type":[0,0,0,0,0,0,0,0,0],"sum_hessian":[3.97E2,3.91E2,6E0,9.6E1,2.95E2,6.5E1,3.1E1,6.2E1,2.33E2],"tree_param":{"num_deleted":"0","num_feature":"17","num_nodes":"9","size_leaf_vector":"1"}},{"base_weights":[-1.4076711E-2,-7.506577E-2,1.8820543E-2,2.8018208E-2,-1.5515763E-1,-2.667698E-2,8.268773E-2,-3.5730373E-2,4.1909173E-2,1.1580262E-1,-5.4920238E-2,-1.4927475E-2,5.785557E-2,6.723389E-3,7.300262E-2],"categories":[],"categories_nodes":[],"categories_segments":[],"categories_sizes":[],"default_left":[0,0,0,0,0,0,0,0,0,0,0,0,0,0,0],"id":26,"left_children":[1,3,5,7,9,11,13,-1,-1,-1,-1,-1,-1,-1,-1],"loss_changes":[7.6182795E-1,1.1024201E0,7.199382E-1,9.860174E-1,1.2034551E0,7.443115E-1,9.919643E-1,0E0,0E0,0E0,0E0,0E0,0E0,0E0,0E0],"parents":[2147483647,0,0,1,1,2,2,3,3,4,4,5,5,6,6],"right_children":[2,4,6,8,10,12,14,-1,-1,-1,-1,-1,-1,-1,-1],"split_conditions":[1.86E2,3.2E3,2E0,1.4E1,6E0,5.2E1,6E0,-3.5730373E-2,4.1909173E-2,1.1580262E-1,-5.4920238E-2,-1.4927475E-2,5.785557E-2,6.723389E-3,7.300262E-2],"split_indices":[14,3,16,1,1,1,0,0,0,0,0,0,0,0,0],"split_type":[0,0,0,0,0,0,0,0,0,0,0,0,0,0,0],"sum_hessian":[3.78E2,1.32E2,2.46E2,5.8E1,7.4E1,1.44E2,1.02E2,2.5E1,3.3E1,3E0,7.1E1,1.31E2,1.3E1,7.5E1,2.7E1],"tree_param":{"num_deleted":"0","num_feature":"17","num_nodes":"15","size_leaf_vector":"1"}},{"base_weights":[-9.5494585E-3,-5.612763E-2,2.2266792E-2,-2.013067E-2,-2.607715E-1,5.2224804E-2,-5.734928E-2,-3.8090765E-2,1.0933485E-2,-6.0162164E-2,-9.751225E-2,5.9188483E-3,1.10346295E-1,1.2115188E-2,-6.1650712E-2],"categories":[],"categories_nodes":[],"categories_segments":[],"categories_sizes":[],"default_left":[0,0,0,0,0,0,0,0,0,0,0,0,0,0,0],"id":27,"left_children":[1,3,5,7,9,11,13,-1,-1,-1,-1,-1,-1,-1,-1],"loss_changes":[5.880992E-1,1.1807663E0,5.658878E-1,8.3876246E-1,2.7720213E-2,1.7566712E0,9.494652E-1,0E0,0E0,0E0,0E0,0E0,0E0,0E0,0E0],"parents":[2147483647,0,0,1,1,2,2,3,3,4,4,5,5,6,6],"right_children":[2,4,6,8,10,12,14,-1,-1,-1,-1,-1,-1,-1,-1],"split_conditions":[2.3E1,2E1,4.6E1,4E0,2.017E3,4.4E1,2E0,-3.8090765E-2,1.0933485E-2,-6.0162164E-2,-9.751225E-2,5.9188483E-3,1.10346295E-1,1.2115188E-2,-6.1650712E-2],"split_indices":[1,1,1,11,2,1,16,0,0,0,0,0,0,0,0],"split_type":[0,0,0,0,0,0,0,0,0,0,0,0,0,0,0],"sum_hessian":[3.95E2,1.6E2,2.35E2,1.37E2,2.3E1,1.71E2,6.4E1,4.7E1,9E1,1.4E1,9E0,1.56E2,1.5E1,3.9E1,2.5E1],"tree_param":{"num_deleted":"0","num_feature":"17","num_nodes":"15","size_leaf_vector":"1"}},{"base_weights":[-6.36292E-3,1.0886305E-2,-6.615302E-2,2.013428E-1,-3.6972323E-3,-2.8467265E-1,-3.3221435E-2,1.1419087E-1,-4.127655E-2,-2.396177E-2,1.1280838E-2,-1.9094926E-1,-5.5752125E-2,-1.7834734E-2,5.815995E-2],"categories":[],"categories_nodes":[],"categories_segments":[],"categories_sizes":[],"default_left":[0,0,0,0,0,0,0,0,0,0,0,0,0,0,0],"id":28,"left_children":[1,3,5,7,9,11,13,-1,-1,-1,-1,-1,-1,-1,-1],"loss_changes":[3.9159536E-1,8.201157E-1,6.022196E-1,1.3285022E0,8.6816525E-1,2.642011E-1,4.5822433E-1,0E0,0E0,0E0,0E0,0E0,0E0,0E0,0E0],"parents":[2147483647,0,0,1,1,2,2,3,3,4,4,5,5,6,6],"right_children":[2,4,6,8,10,12,14,-1,-1,-1,-1,-1,-1,-1,-1],"split_conditions":[1E0,8E0,3.22E4,6E0,2.3E1,2.86E2,8E0,1.1419087E-1,-4.127655E-2,-2.396177E-2,1.1280838E-2,-1.9094926E-1,-5.5752125E-2,-1.7834734E-2,5.815995E-2],"split_indices":[12,1,15,0,1,13,5,0,0,0,0,0,0,0,0],"split_type":[0,0,0,0,0,0,0,0,0,0,0,0,0,0,0],"sum_hessian":[3.78E2,2.94E2,8.4E1,2E1,2.74E2,1E1,7.4E1,1.3E1,7E0,9.6E1,1.78E2,1E0,9E0,6.7E1,7E0],"tree_param":{"num_deleted":"0","num_feature":"17","num_nodes":"15","size_leaf_vector":"1"}},{"base_weights":[7.934139E-3,5.1228125E-2,3.1873758E-3,-1.1512572E-1,1.2953451E-2,-1.8550301E-2,-6.305878E-2,8.072598E-2,2.0877635E-3],"categories":[],"categories_nodes":[],"categories_segments":[],"categories_sizes":[],"default_left":[0,0,0,0,0,0,0,0,0],"id":29,"left_children":[1,-1,3,5,7,-1,-1,-1,-1],"loss_changes":[3.0011293E-1,0E0,4.394086E-1,1.3392892E-1,5.37026E-1,0E0,0E0,0E0,0E0],"parents":[2147483647,0,0,2,2,3,3,4,4],"right_children":[2,-1,4,6,8,-1,-1,-1,-1],"split_conditions":[1E0,5.1228125E-2,5E0,2.65E2,6E0,-1.8550301E-2,-6.305878E-2,8.072598E-2,2.0877635E-3],"split_indices":[1,0,1,14,1,0,0,0,0],"split_type":[0,0,0,0,0,0,0,0,0],"sum_hessian":[3.88E2,1E1,3.78E2,2.8E1,3.5E2,1.9E1,9E0,7E0,3.43E2],"tree_param":{"num_deleted":"0","num_feature":"17","num_nodes":"9","size_leaf_vector":"1"}},{"base_weights":[4.7581634E-3,5.7289492E-2,-6.0527488E-3,1.2635909E-1,-3.2108307E-2,-6.4847685E-2,1.8048855E-2,-1.2574697E-2,7.137778E-2,-1.8461132E-2,2.20132E-2,7.4157813E-3,-6.369739E-2,3.285296E-2,-2.8930695E-3],"categories":[],"categories_nodes":[],"categories_segments":[],"categories_sizes":[],"default_left":[0,0,0,0,0,0,0,0,0,0,0,0,0,0,0],"id":30,"left_children":[1,3,5,7,9,11,13,-1,-1,-1,-1,-1,-1,-1,-1],"loss_changes":[2.229681E-1,4.1776007E-1,4.6312943E-1,7.233801E-1,9.764491E-2,1.2601093E0,5.8866024E-1,0E0,0E0,0E0,0E0,0E0,0E0,0E0,0E0],"parents":[2147483647,0,0,1,1,2,2,3,3,4,4,5,5,6,6],"right_children":[2,4,6,8,10,12,14,-1,-1,-1,-1,-1,-1,-1,-1],"split_conditions":[3.2E3,8E0,3.4E3,2.8E3,3E3,7E0,2.55E2,-1.2574697E-2,7.137778E-2,-1.8461132E-2,2.20132E-2,7.4157813E-3,-6.369739E-2,3.285296E-2,-2.8930695E-3],"split_indices":[3,0,3,3,3,0,14,0,0,0,0,0,0,0,0],"split_type":[0,0,0,0,0,0,0,0,0,0,0,0,0,0,0],"sum_hessian":[3.91E2,6.6E1,3.25E2,3.7E1,2.9E1,9.4E1,2.31E2,1.5E1,2.2E1,2.3E1,6E0,5.9E1,3.5E1,5.3E1,1.78E2],"tree_param":{"num_deleted":"0","num_feature":"17","num_nodes":"15","size_leaf_vector":"1"}},{"base_weights":[5.10957E-4,-9.945408E-2,8.999738E-3,-6.194101E-2,-3.3718204E-1,1.6403253E-1,2.808094E-3,-3.988406E-2,1.7964417E-2,2.702179E-2,-1.5288734E-1,3.0840633E-2,8.742242E-2,2.5590933E-3,-4.078556E-2],"categories":[],"categories_nodes":[],"categories_segments":[],"categories_sizes":[],"default_left":[0,0,0,0,0,0,0,0,0,0,0,0,0,0,0],"id":31,"left_children":[1,3,5,7,9,11,13,-1,-1,-1,-1,-1,-1,-1,-1],"loss_changes":[3.360847E-1,2.555697E-1,3.499058E-1,2.501639E-1,3.4061062E-1,7.9232216E-2,2.806528E-1,0E0,0E0,0E0,0E0,0E0,0E0,0E0,0E0],"parents":[2147483647,0,0,1,1,2,2,3,3,4,4,5,5,6,6],"right_children":[2,4,6,8,10,12,14,-1,-1,-1,-1,-1,-1,-1,-1],"split_conditions":[2.011E3,9E0,1E0,7E0,9.5E1,1.78E2,1.1E1,-3.988406E-2,1.7964417E-2,2.702179E-2,-1.5288734E-1,3.0840633E-2,8.742242E-2,2.5590933E-3,-4.078556E-2],"split_indices":[2,10,10,0,4,13,10,0,0,0,0,0,0,0,0],"split_type":[0,0,0,0,0,0,0,0,0,0,0,0,0,0,0],"sum_hessian":[3.94E2,3E1,3.64E2,2.7E1,3E0,1.3E1,3.51E2,1.7E1,1E1,1E0,2E0,1E1,3E0,3.38E2,1.3E1],"tree_param":{"num_deleted":"0","num_feature":"17","num_nodes":"15","size_leaf_vector":"1"}},{"base_weights":[8.610186E-3,-5.6346055E-2,1.976999E-2,-1.593861E-1,-8.569384E-3,2.6016265E-2,-4.9291477E-2,-3.4089664E-3,-6.0260013E-2,-6.183014E-2,2.1752056E-3,9.857964E-3,-2.358693E-2],"categories":[],"categories_nodes":[],"categories_segments":[],"categories_sizes":[],"default_left":[0,0,0,0,0,0,0,0,0,0,0,0,0],"id":32,"left_children":[1,3,5,7,9,11,-1,-1,-1,-1,-1,-1,-1],"loss_changes":[2.8164986E-1,2.7924007E-1,3.8485253E-1,1.08238935E-1,1.2649259E-1,2.324553E-1,0E0,0E0,0E0,0E0,0E0,0E0,0E0],"parents":[2147483647,0,0,1,1,2,2,3,3,4,4,5,5],"right_children":[2,4,6,8,10,12,-1,-1,-1,-1,-1,-1,-1],"split_conditions":[2E0,2.7E1,9.588E4,3E0,2.14E2,1.4E2,-4.9291477E-2,-3.4089664E-3,-6.0260013E-2,-6.183014E-2,2.1752056E-3,9.857964E-3,-2.358693E-2],"split_indices":[0,1,15,1,13,4,0,0,0,0,0,0,0],"split_type":[0,0,0,0,0,0,0,0,0,0,0,0,0],"sum_hessian":[3.86E2,5.6E1,3.3E2,1.7E1,3.9E1,3.2E2,1E1,4E0,1.3E1,2E0,3.7E1,3.01E2,1.9E1],"tree_param":{"num_deleted":"0","num_feature":"17","num_nodes":"13","size_leaf_vector":"1"}},{"base_weights":[-7.7139144E-3,-1.3046147E-2,5.3941604E-2,4.4200286E-2,-2.2951113E-2,-9.0507984E-2,2.995317E-2,-1.9259166E-2,2.2235585E-2,-1.0740333E-3,-2.0977098E-2,-9.093761E-3,-3.6168825E-2],"categories":[],"categories_nodes":[],"categories_segments":[],"categories_sizes":[],"default_left":[0,0,0,0,0,0,0,0,0,0,0,0,0],"id":33,"left_children":[1,3,5,7,9,11,-1,-1,-1,-1,-1,-1,-1],"loss_changes":[1.2793447E-1,2.0344199E-1,2.1458426E-1,1.7664103E-1,2.7727076E-1,1.081872E-2,0E0,0E0,0E0,0E0,0E0,0E0,0E0],"parents":[2147483647,0,0,1,1,2,2,3,3,4,4,5,5],"right_children":[2,4,6,8,10,12,-1,-1,-1,-1,-1,-1,-1],"split_conditions":[1E1,3.2E3,3E3,1.87E4,7E0,1.43E2,2.995317E-2,-1.9259166E-2,2.2235585E-2,-1.0740333E-3,-2.0977098E-2,-9.093761E-3,-3.6168825E-2],"split_indices":[0,3,3,15,0,13,0,0,0,0,0,0,0],"split_type":[0,0,0,0,0,0,0,0,0,0,0,0,0],"sum_hessian":[3.86E2,3.56E2,3E1,5.2E1,3.04E2,7E0,2.3E1,1.1E1,4.1E1,2.16E2,8.8E1,3E0,4E0],"tree_param":{"num_deleted":"0","num_feature":"17","num_nodes":"13","size_leaf_vector":"1"}},{"base_weights":[1.6251433E-3,-1.2988899E-2,5.1711082E-2,-5.5779167E-3,-1.693306E-1,3.6581278E-1,1.8405568E-2,4.113126E-2,-3.6053837E-3,-6.274561E-2,-8.233309E-3,3.934727E-2,2.1395569E-1,2.0816071E-2,-9.914311E-3],"categories":[],"categories_nodes":[],"categories_segments":[],"categories_sizes":[],"default_left":[0,0,0,0,0,0,0,0,0,0,0,0,0,0,0],"id":34,"left_children":[1,3,5,7,9,11,13,-1,-1,-1,-1,-1,-1,-1,-1],"loss_changes":[2.722281E-1,3.327454E-1,8.7201774E-1,2.552577E-1,6.771144E-2,5.585631E-1,2.042761E-1,0E0,0E0,0E0,0E0,0E0,0E0,0E0,0E0],"parents":[2147483647,0,0,1,1,2,2,3,3,4,4,5,5,6,6],"right_children":[2,4,6,8,10,12,14,-1,-1,-1,-1,-1,-1,-1,-1],"split_conditions":[2.96E2,4.5E3,2.62E2,1E0,4.7E3,2.019E3,3.59E2,4.113126E-2,-3.6053837E-3,-6.274561E-2,-8.233309E-3,3.934727E-2,2.1395569E-1,2.0816071E-2,-9.914311E-3],"split_indices":[13,3,14,10,3,2,14,0,0,0,0,0,0,0,0],"split_type":[0,0,0,0,0,0,0,0,0,0,0,0,0,0,0],"sum_hessian":[3.7E2,2.87E2,8.3E1,2.75E2,1.2E1,7E0,7.6E1,1.1E1,2.64E2,9E0,3E0,5E0,2E0,3.8E1,3.8E1],"tree_param":{"num_deleted":"0","num_feature":"17","num_nodes":"15","size_leaf_vector":"1"}},{"base_weights":[-5.925753E-4,-1.0625143E-1,4.999408E-3,-6.8650946E-2,-5.4763224E-2,-6.6074035E-3,1.06058806E-1,-2.171165E-2,-2.483082E-3,-5.8869245E-3,1.6714534E-2,1.8875139E-2,8.828692E-2],"categories":[],"categories_nodes":[],"categories_segments":[],"categories_sizes":[],"default_left":[0,0,0,0,0,0,0,0,0,0,0,0,0],"id":35,"left_children":[1,3,5,7,-1,9,11,-1,-1,-1,-1,-1,-1],"loss_changes":[2.350957E-1,4.4840977E-2,4.4408622E-1,2.7709454E-3,0E0,2.76891E-1,2.981874E-1,0E0,0E0,0E0,0E0,0E0,0E0],"parents":[2147483647,0,0,1,1,2,2,3,3,5,5,6,6],"right_children":[2,4,6,8,-1,10,12,-1,-1,-1,-1,-1,-1],"split_conditions":[9E1,4.59E2,3E0,3E0,-5.4763224E-2,2.019E3,3.8E3,-2.171165E-2,-2.483082E-3,-5.8869245E-3,1.6714534E-2,1.8875139E-2,8.828692E-2],"split_indices":[4,13,16,0,0,2,3,0,0,0,0,0,0],"split_type":[0,0,0,0,0,0,0,0,0,0,0,0,0],"sum_hessian":[3.96E2,1.9E1,3.77E2,1.4E1,5E0,3.39E2,3.8E1,1.3E1,1E0,2.81E2,5.8E1,3.2E1,6E0],"tree_param":{"num_deleted":"0","num_feature":"17","num_nodes":"13","size_leaf_vector":"1"}},{"base_weights":[5.2480673E-4,1.0233416E-1,-3.2876418E-3,6.423673E-2,5.4455567E-2,-2.4935175E-2,1.1978973E-2,2.5624039E-2,1.36856325E-2,-4.9731277E-2,1.420611E-3,2.1675652E-2,-5.1680175E-3],"categories":[],"categories_nodes":[],"categories_segments":[],"categories_sizes":[],"default_left":[0,0,0,0,0,0,0,0,0,0,0,0,0],"id":36,"left_children":[1,3,5,7,-1,9,11,-1,-1,-1,-1,-1,-1],"loss_changes":[1.5054776E-1,3.0573934E-2,1.2389993E-1,4.4048578E-4,0E0,6.484794E-1,3.8851523E-1,0E0,0E0,0E0,0E0,0E0,0E0],"parents":[2147483647,0,0,1,1,2,2,3,3,5,5,6,6],"right_children":[2,4,6,8,-1,10,12,-1,-1,-1,-1,-1,-1],"split_conditions":[1E0,2.018E3,5E0,2.012E3,5.4455567E-2,2.17E2,7E0,2.5624039E-2,1.36856325E-2,-4.9731277E-2,1.420611E-3,2.1675652E-2,-5.1680175E-3],"split_indices":[10,2,0,2,0,14,0,0,0,0,0,0,0],"split_type":[0,0,0,0,0,0,0,0,0,0,0,0,0],"sum_hessian":[3.86E2,1.3E1,3.73E2,1E1,3E0,1.54E2,2.19E2,3E0,7E0,2.6E1,1.28E2,7.1E1,1.48E2],"tree_param":{"num_deleted":"0","num_feature":"17","num_nodes":"13","size_leaf_vector":"1"}},{"base_weights":[-1.6093762E-3,-2.3947705E-2,1.4900061E-2,-7.12791E-2,1.2953461E-2,2.261885E-2,-1.3521662E-1,-1.3766928E-1,-1.7806903E-2,-3.0766461E-2,9.90165E-3,1.1301732E-2,-1.7189734E-2,-1.3538618E-1,-1.7544251E-2],"categories":[],"categories_nodes":[],"categories_segments":[],"categories_sizes":[],"default_left":[0,0,0,0,0,0,0,0,0,0,0,0,0,0,0],"id":37,"left_children":[1,3,5,7,9,11,13,-1,-1,-1,-1,-1,-1,-1,-1],"loss_changes":[1.4234221E-1,2.8736305E-1,2.602941E-1,3.055083E-1,2.1878938E-1,2.572056E-1,2.4040158E-1,0E0,0E0,0E0,0E0,0E0,0E0,0E0,0E0],"parents":[2147483647,0,0,1,1,2,2,3,3,4,4,5,5,6,6],"right_children":[2,4,6,8,10,12,14,-1,-1,-1,-1,-1,-1,-1,-1],"split_conditions":[5E0,2.7E1,5.1E1,1.71E2,2.14E2,4.5E3,2.011E3,-1.3766928E-1,-1.7806903E-2,-3.0766461E-2,9.90165E-3,1.1301732E-2,-1.7189734E-2,-1.3538618E-1,-1.7544251E-2],"split_indices":[0,1,1,13,13,3,2,0,0,0,0,0,0,0,0],"split_type":[0,0,0,0,0,0,0,0,0,0,0,0,0,0,0],"sum_hessian":[3.84E2,1.63E2,2.21E2,7.1E1,9.2E1,2.11E2,1E1,1E0,7E1,1.3E1,7.9E1,1.78E2,3.3E1,1E0,9E0],"tree_param":{"num_deleted":"0","num_feature":"17","num_nodes":"15","size_leaf_vector":"1"}},{"base_weights":[-1.6694771E-3,-2.6781151E-2,1.7514298E-2,4.1552325E-4,-1.1675003E-1,6.660166E-2,2.6850644E-3,-9.858356E-3,4.0435873E-2,-5.437852E-2,-1.392025E-2,-8.524929E-3,5.240431E-2,-1.1828451E-2,1.3283218E-2],"categories":[],"categories_nodes":[],"categories_segments":[],"categories_sizes":[],"default_left":[0,0,0,0,0,0,0,0,0,0,0,0,0,0,0],"id":38,"left_children":[1,3,5,7,9,11,13,-1,-1,-1,-1,-1,-1,-1,-1],"loss_changes":[1.8690115E-1,4.111201E-1,1.5996532E-1,5.8571315E-1,1.6858476E-1,5.287081E-1,2.9951566E-1,0E0,0E0,0E0,0E0,0E0,0E0,0E0,0E0],"parents":[2147483647,0,0,1,1,2,2,3,3,4,4,5,5,6,6],"right_children":[2,4,6,8,10,12,14,-1,-1,-1,-1,-1,-1,-1,-1],"split_conditions":[2.3E1,1.8E1,1.91E2,1.4E1,2.6E2,1.71E2,2.91E2,-9.858356E-3,4.0435873E-2,-5.437852E-2,-1.392025E-2,-8.524929E-3,5.240431E-2,-1.1828451E-2,1.3283218E-2],"split_indices":[1,1,13,1,14,13,13,0,0,0,0,0,0,0,0],"split_type":[0,0,0,0,0,0,0,0,0,0,0,0,0,0,0],"sum_hessian":[3.86E2,1.67E2,2.19E2,1.29E2,3.8E1,5E1,1.69E2,1.04E2,2.5E1,1.9E1,1.9E1,2.7E1,2.3E1,8.4E1,8.5E1],"tree_param":{"num_deleted":"0","num_feature":"17","num_nodes":"15","size_leaf_vector":"1"}},{"base_weights":[3.3643635E-3,3.5436314E-2,5.2552944E-4,-2.0989727E-2,1.6685193E-2,1.331172E-3,-3.0219918E-2,8.77791E-3,-1.16631E-2],"categories":[],"categories_nodes":[],"categories_segments":[],"categories_sizes":[],"default_left":[0,0,0,0,0,0,0,0,0],"id":39,"left_children":[1,-1,3,5,7,-1,-1,-1,-1],"loss_changes":[1.21452056E-1,0E0,1.2725317E-1,3.1878504E-1,1.4715894E-1,0E0,0E0,0E0,0E0],"parents":[2147483647,0,0,2,2,3,3,4,4],"right_children":[2,-1,4,6,8,-1,-1,-1,-1],"split_conditions":[1E0,3.5436314E-2,2.3E1,1.8E1,1E0,1.331172E-3,-3.0219918E-2,8.77791E-3,-1.16631E-2],"split_indices":[1,0,1,1,12,0,0,0,0],"split_type":[0,0,0,0,0,0,0,0,0],"sum_hessian":[3.72E2,8E0,3.64E2,1.56E2,2.08E2,1.19E2,3.7E1,1.7E2,3.8E1],"tree_param":{"num_deleted":"0","num_feature":"17","num_nodes":"9","size_leaf_vector":"1"}},{"base_weights":[-1.8090529E-3,-2.7455874E-2,2.0129576E-2,-9.184532E-3,-1.7891312E-1,1.7757626E-1,1.207606E-2,2.8959656E-4,-4.8154164E-2,-7.565701E-2,2.3010064E-2,6.1376574E-3,6.428948E-2,-6.705037E-5,1.9680545E-2],"categories":[],"categories_nodes":[],"categories_segments":[],"categories_sizes":[],"default_left":[0,0,0,0,0,0,0,0,0,0,0,0,0,0,0],"id":40,"left_children":[1,3,5,7,9,11,13,-1,-1,-1,-1,-1,-1,-1,-1],"loss_changes":[2.1604997E-1,4.8817366E-1,2.6033148E-1,2.443743E-1,3.7522352E-1,5.331233E-2,1.3036662E-1,0E0,0E0,0E0,0E0,0E0,0E0,0E0,0E0],"parents":[2147483647,0,0,1,1,2,2,3,3,4,4,5,5,6,6],"right_children":[2,4,6,8,10,12,14,-1,-1,-1,-1,-1,-1,-1,-1],"split_conditions":[2.98E4,4.7E1,3.06E4,2.894E4,2.017E3,1.05E2,4.4E1,2.8959656E-4,-4.8154164E-2,-7.565701E-2,2.3010064E-2,6.1376574E-3,6.428948E-2,-6.705037E-5,1.9680545E-2],"split_indices":[15,1,15,15,2,4,1,0,0,0,0,0,0,0,0],"split_type":[0,0,0,0,0,0,0,0,0,0,0,0,0,0,0],"sum_hessian":[3.82E2,1.76E2,2.06E2,1.58E2,1.8E1,9E0,1.97E2,1.49E2,9E0,1.4E1,4E0,2E0,7E0,1.61E2,3.6E1],"tree_param":{"num_deleted":"0","num_feature":"17","num_nodes":"15","size_leaf_vector":"1"}},{"base_weights":[-6.431319E-3,-2.9133039E-2,5.6017577E-3,-1.0209512E-1,1.6703706E-2,-1.23327546E-1,8.810228E-3,1.0941362E-2,-6.286351E-2,-3.0386776E-3,2.0660315E-2,-2.9047704E-3,1.3968726E-2],"categories":[],"categories_nodes":[],"categories_segments":[],"categories_sizes":[],"default_left":[0,0,0,0,0,0,0,0,0,0,0,0,0],"id":41,"left_children":[1,3,5,7,9,-1,11,-1,-1,-1,-1,-1,-1],"loss_changes":[1.0806595E-1,4.5988047E-1,3.498916E-1,7.96756E-1,1.1967186E-1,0E0,1.8057188E-1,0E0,0E0,0E0,0E0,0E0,0E0],"parents":[2147483647,0,0,1,1,2,2,3,3,4,4,6,6],"right_children":[2,4,6,8,10,-1,12,-1,-1,-1,-1,-1,-1],"split_conditions":[3.3E3,4E0,1.71E2,1.7E1,1.7E1,-1.23327546E-1,7E0,1.0941362E-2,-6.286351E-2,-3.0386776E-3,2.0660315E-2,-2.9047704E-3,1.3968726E-2],"split_indices":[3,11,13,6,6,0,0,0,0,0,0,0,0],"split_type":[0,0,0,0,0,0,0,0,0,0,0,0,0],"sum_hessian":[3.94E2,1.36E2,2.58E2,5.2E1,8.4E1,1E0,2.57E2,2.3E1,2.9E1,5.6E1,2.8E1,1.73E2,8.4E1],"tree_param":{"num_deleted":"0","num_feature":"17","num_nodes":"13","size_leaf_vector":"1"}},{"base_weights":[-1.58582E-3,-1.5201426E-2,5.74979E-2,-6.816768E-3,-1.18677534E-1,-7.158461E-4,1.2984577E-1,8.770108E-3,-5.466374E-3,-1.0464516E-1,-1.1926702E-2,3.303299E-2,-1.8018376E-2,2.5673347E-2,7.7245764E-2],"categories":[],"categories_nodes":[],"categories_segments":[],"categories_sizes":[],"default_left":[0,0,0,0,0,0,0,0,0,0,0,0,0,0,0],"id":42,"left_children":[1,3,5,7,9,11,13,-1,-1,-1,-1,-1,-1,-1,-1],"loss_changes":[3.1783155E-1,2.776944E-1,3.117543E-1,1.23051405E-1,4.220458E-1,2.8284746E-1,1.6442698E-1,0E0,0E0,0E0,0E0,0E0,0E0,0E0,0E0],"parents":[2147483647,0,0,1,1,2,2,3,3,4,4,5,5,6,6],"right_children":[2,4,6,8,10,12,14,-1,-1,-1,-1,-1,-1,-1,-1],"split_conditions":[4.4E1,4.1E1,1.05E2,1E2,2.99E2,1E0,7E0,8.770108E-3,-5.466374E-3,-1.0464516E-1,-1.1926702E-2,3.303299E-2,-1.8018376E-2,2.5673347E-2,7.7245764E-2],"split_indices":[1,1,4,4,13,9,0,0,0,0,0,0,0,0,0],"split_type":[0,0,0,0,0,0,0,0,0,0,0,0,0,0,0],"sum_hessian":[3.93E2,3.2E2,7.3E1,2.97E2,2.3E1,4.1E1,3.2E1,7.1E1,2.26E2,5E0,1.8E1,1.4E1,2.7E1,2.5E1,7E0],"tree_param":{"num_deleted":"0","num_feature":"17","num_nodes":"15","size_leaf_vector":"1"}},{"base_weights":[2.5286663E-3,-1.5778605E-2,1.8669745E-2,-7.2149388E-3,-1.4669175E-1,-7.3452154E-3,5.6683667E-2,7.402276E-3,-1.3815272E-2,-9.2019424E-2,-3.4265246E-3,1.9730413E-3,-1.1851796E-2,2.3910074E-2,-4.2425793E-2],"categories":[],"categories_nodes":[],"categories_segments":[],"categories_sizes":[],"default_left":[0,0,0,0,0,0,0,0,0,0,0,0,0,0,0],"id":43,"left_children":[1,3,5,7,9,11,13,-1,-1,-1,-1,-1,-1,-1,-1],"loss_changes":[1.1347075E-1,2.00739E-1,2.0215821E-1,2.1167234E-1,2.3463081E-1,5.4884452E-2,3.8972223E-1,0E0,0E0,0E0,0E0,0E0,0E0,0E0,0E0],"parents":[2147483647,0,0,1,1,2,2,3,3,4,4,5,5,6,6],"right_children":[2,4,6,8,10,12,14,-1,-1,-1,-1,-1,-1,-1,-1],"split_conditions":[2.95E4,8E0,2E0,7E0,2.86E2,1E0,4.3E3,7.402276E-3,-1.3815272E-2,-9.2019424E-2,-3.4265246E-3,1.9730413E-3,-1.1851796E-2,2.3910074E-2,-4.2425793E-2],"split_indices":[15,10,16,0,13,12,3,0,0,0,0,0,0,0,0],"split_type":[0,0,0,0,0,0,0,0,0,0,0,0,0,0,0],"sum_hessian":[3.82E2,1.79E2,2.03E2,1.69E2,1E1,1.21E2,8.2E1,9.3E1,7.6E1,4E0,6E0,8.5E1,3.6E1,7.4E1,8E0],"tree_param":{"num_deleted":"0","num_feature":"17","num_nodes":"15","size_leaf_vector":"1"}},{"base_weights":[-2.579772E-3,-8.3342325E-3,4.481516E-2,-1.6284022E-2,2.2996048E-2,-2.422285E-2,6.019361E-2,5.1003285E-3,-7.1382583E-3,8.591641E-2,5.180723E-4,-2.0351411E-4,-1.8971253E-2,2.1799995E-2,1.1422634E-2],"categories":[],"categories_nodes":[],"categories_segments":[],"categories_sizes":[],"default_left":[0,0,0,0,0,0,0,0,0,0,0,0,0,0,0],"id":44,"left_children":[1,3,5,7,9,11,13,-1,-1,-1,-1,-1,-1,-1,-1],"loss_changes":[1.00738965E-1,8.231822E-2,4.392597E-2,6.614845E-2,3.7484756E-1,7.3057367E-3,6.337233E-3,0E0,0E0,0E0,0E0,0E0,0E0,0E0,0E0],"parents":[2147483647,0,0,1,1,2,2,3,3,4,4,5,5,6,6],"right_children":[2,4,6,8,10,12,14,-1,-1,-1,-1,-1,-1,-1,-1],"split_conditions":[1E1,2.99E2,2.324E4,1.7E1,3E2,1.45E2,2.11E2,5.1003285E-3,-7.1382583E-3,8.591641E-2,5.180723E-4,-2.0351411E-4,-1.8971253E-2,2.1799995E-2,1.1422634E-2],"split_indices":[0,13,15,6,13,13,13,0,0,0,0,0,0,0,0],"split_type":[0,0,0,0,0,0,0,0,0,0,0,0,0,0,0],"sum_hessian":[3.67E2,3.28E2,3.9E1,2.62E2,6.6E1,7E0,3.2E1,4.8E1,2.14E2,4E0,6.2E1,5E0,2E0,1.9E1,1.3E1],"tree_param":{"num_deleted":"0","num_feature":"17","num_nodes":"15","size_leaf_vector":"1"}},{"base_weights":[3.5059534E-3,1.3077287E-2,-2.7828474E-2,7.700204E-3,1.4924847E-1,-7.76899E-2,-1.5835697E-2,-2.0924252E-2,3.8854687E-3,1.1348534E-2,1.3012773E-1,-1.3166809E-2,-3.9702795E-2,7.5269337E-3,-1.1302127E-2],"categories":[],"categories_nodes":[],"categories_segments":[],"categories_sizes":[],"default_left":[0,0,0,0,0,0,0,0,0,0,0,0,0,0,0],"id":45,"left_children":[1,3,5,7,9,11,13,-1,-1,-1,-1,-1,-1,-1,-1],"loss_changes":[1.1403067E-1,2.1192202E-1,5.1989675E-2,1.15187615E-1,3.322935E-1,2.559553E-2,6.618772E-2,0E0,0E0,0E0,0E0,0E0,0E0,0E0,0E0],"parents":[2147483647,0,0,1,1,2,2,3,3,4,4,5,5,6,6],"right_children":[2,4,6,8,10,12,14,-1,-1,-1,-1,-1,-1,-1,-1],"split_conditions":[2.74E2,2.99E2,9E0,2.8E3,2.6E1,4.59E2,1.15E2,-2.0924252E-2,3.8854687E-3,1.1348534E-2,1.3012773E-1,-1.3166809E-2,-3.9702795E-2,7.5269337E-3,-1.1302127E-2],"split_indices":[14,13,1,3,1,13,4,0,0,0,0,0,0,0,0],"split_type":[0,0,0,0,0,0,0,0,0,0,0,0,0,0,0],"sum_hessian":[3.78E2,2.9E2,8.8E1,2.8E2,1E1,1.6E1,7.2E1,1.7E1,2.63E2,8E0,2E0,1.1E1,5E0,2.5E1,4.7E1],"tree_param":{"num_deleted":"0","num_feature":"17","num_nodes":"15","size_leaf_vector":"1"}},{"base_weights":[-7.4477578E-3,-4.0178847E-2,3.5965347E-3,-1.9628915E-3,-2.0500755E-1,5.920786E-2,-5.1621995E-3,8.027159E-3,-2.6408905E-2,-8.965056E-3,-8.50606E-2,-1.7165598E-2,7.504487E-4],"categories":[],"categories_nodes":[],"categories_segments":[],"categories_sizes":[],"default_left":[0,0,0,0,0,0,0,0,0,0,0,0,0],"id":46,"left_children":[1,3,5,7,9,-1,11,-1,-1,-1,-1,-1,-1],"loss_changes":[1.4474119E-1,6.358053E-1,5.1015437E-1,2.0751862E-1,2.5281674E-1,0E0,1.1503923E-1,0E0,0E0,0E0,0E0,0E0,0E0],"parents":[2147483647,0,0,1,1,2,2,3,3,4,4,6,6],"right_children":[2,4,6,8,10,-1,12,-1,-1,-1,-1,-1,-1],"split_conditions":[1.4E1,1.2E1,1.6E1,1.8E1,1.48E2,5.920786E-2,1.71E2,8.027159E-3,-2.6408905E-2,-8.965056E-3,-8.50606E-2,-1.7165598E-2,7.504487E-4],"split_indices":[1,1,1,6,13,0,13,0,0,0,0,0,0],"split_type":[0,0,0,0,0,0,0,0,0,0,0,0,0],"sum_hessian":[3.99E2,1E2,2.99E2,8.2E1,1.8E1,1.2E1,2.87E2,6.2E1,2E1,6E0,1.2E1,3.6E1,2.51E2],"tree_param":{"num_deleted":"0","num_feature":"17","num_nodes":"13","size_leaf_vector":"1"}},{"base_weights":[2.016058E-3,-4.9379412E-2,6.2004277E-3,-1.096082E-1,1.0171294E-2,-2.6391814E-2,1.2011818E-2,-1.955824E-2,-4.2096376E-2,2.3009738E-2,-1.1224595E-2,-1.42277E-3,-6.1803535E-2,1.1935587E-1,2.0983426E-3],"categories":[],"categories_nodes":[],"categories_segments":[],"categories_sizes":[],"default_left":[0,0,0,0,0,0,0,0,0,0,0,0,0,0,0],"id":47,"left_children":[1,3,5,7,9,11,13,-1,-1,-1,-1,-1,-1,-1,-1],"loss_changes":[8.568406E-2,1.0871487E-1,7.001851E-2,1.131326E-2,5.352306E-2,2.1678665E-1,6.0315293E-1,0E0,0E0,0E0,0E0,0E0,0E0,0E0,0E0],"parents":[2147483647,0,0,1,1,2,2,3,3,4,4,5,5,6,6],"right_children":[2,4,6,8,10,12,14,-1,-1,-1,-1,-1,-1,-1,-1],"split_conditions":[1E0,3.996E4,1.58E2,1.88E2,4.902E4,1E2,1.72E2,-1.955824E-2,-4.2096376E-2,2.3009738E-2,-1.1224595E-2,-1.42277E-3,-6.1803535E-2,1.1935587E-1,2.0983426E-3],"split_indices":[0,15,14,14,15,4,14,0,0,0,0,0,0,0,0],"split_type":[0,0,0,0,0,0,0,0,0,0,0,0,0,0,0],"sum_hessian":[3.96E2,2.9E1,3.67E2,1.4E1,1.5E1,5.5E1,3.12E2,7E0,7E0,6E0,9E0,5E1,5E0,3E0,3.09E2],"tree_param":{"num_deleted":"0","num_feature":"17","num_nodes":"15","size_leaf_vector":"1"}},{"base_weights":[-1.9319233E-3,3.2860834E-2,-1.0312158E-2,-1.3302258E-2,9.0618074E-2,-1.3547441E-1,-2.5079069E-3,2.0305825E-2,-1.1232324E-2,3.8877677E-2,-3.5945321E-3,-8.953794E-3,-6.509777E-2,2.2025734E-2,-4.0674806E-3],"categories":[],"categories_nodes":[],"categories_segments":[],"categories_sizes":[],"default_left":[0,0,0,0,0,0,0,0,0,0,0,0,0,0,0],"id":48,"left_children":[1,3,5,7,9,11,13,-1,-1,-1,-1,-1,-1,-1,-1],"loss_changes":[1.1113603E-1,1.9850814E-1,2.9953715E-1,8.4642686E-2,1.3351133E-1,1.4851508E-1,2.443115E-1,0E0,0E0,0E0,0E0,0E0,0E0,0E0,0E0],"parents":[2147483647,0,0,1,1,2,2,3,3,4,4,5,5,6,6],"right_children":[2,4,6,8,10,12,14,-1,-1,-1,-1,-1,-1,-1,-1],"split_conditions":[1.1E1,4E0,1.3E1,1E0,2.05E2,1.2E1,1.8E1,2.0305825E-2,-1.1232324E-2,3.8877677E-2,-3.5945321E-3,-8.953794E-3,-6.509777E-2,2.2025734E-2,-4.0674806E-3],"split_indices":[1,10,1,1,13,1,1,0,0,0,0,0,0,0,0],"split_type":[0,0,0,0,0,0,0,0,0,0,0,0,0,0,0],"sum_hessian":[3.79E2,7.3E1,3.06E2,4.1E1,3.2E1,1.7E1,2.89E2,9E0,3.2E1,2.3E1,9E0,8E0,9E0,3.6E1,2.53E2],"tree_param":{"num_deleted":"0","num_feature":"17","num_nodes":"15","size_leaf_vector":"1"}},{"base_weights":[-2.2445784E-3,-3.0899888E-2,2.7640248E-3,-2.3017229E-1,-3.997875E-3,9.893361E-2,-2.1396796E-3,-1.0567446E-1,-4.5335487E-2,-6.0130996E-3,2.6629545E-2,-8.785281E-3,1.6694058E-3],"categories":[],"categories_nodes":[],"categories_segments":[],"categories_sizes":[],"default_left":[0,0,0,0,0,0,0,0,0,0,0,0,0],"id":49,"left_children":[1,3,5,7,9,-1,11,-1,-1,-1,-1,-1,-1],"loss_changes":[5.6920547E-2,3.153687E-1,5.4271674E-1,1.4322966E-2,8.066733E-2,0E0,7.0013E-2,0E0,0E0,0E0,0E0,0E0,0E0],"parents":[2147483647,0,0,1,1,2,2,3,3,4,4,6,6],"right_children":[2,4,6,8,10,-1,12,-1,-1,-1,-1,-1,-1],"split_conditions":[1.71E2,2E0,1.72E2,4E0,1.48E2,9.893361E-2,1.86E2,-1.0567446E-1,-4.5335487E-2,-6.0130996E-3,2.6629545E-2,-8.785281E-3,1.6694058E-3],"split_indices":[13,16,14,0,14,0,14,0,0,0,0,0,0],"split_type":[0,0,0,0,0,0,0,0,0,0,0,0,0],"sum_hessian":[3.95E2,5.8E1,3.37E2,6E0,5.2E1,4E0,3.33E2,1E0,5E0,4.5E1,7E0,7.3E1,2.6E2],"tree_param":{"num_deleted":"0","num_feature":"17","num_nodes":"13","size_leaf_vector":"1"}},{"base_weights":[-6.8225863E-4,1.16235055E-2,-1.3696872E-2,1.6053483E-3,1.199609E-1,-1.1926079E-1,-1.2701157E-3,1.5075849E-2,-4.179549E-3,5.7986896E-2,9.990947E-3,-6.744108E-2,1.0414251E-2,1.9118369E-2,-1.972929E-3],"categories":[],"categories_nodes":[],"categories_segments":[],"categories_sizes":[],"default_left":[0,0,0,0,0,0,0,0,0,0,0,0,0,0,0],"id":50,"left_children":[1,3,5,7,9,11,13,-1,-1,-1,-1,-1,-1,-1,-1],"loss_changes":[6.261957E-2,2.1796098E-1,2.4909376E-1,1.4053135E-1,1.0158943E-1,3.328229E-1,5.939698E-2,0E0,0E0,0E0,0E0,0E0,0E0,0E0,0E0],"parents":[2147483647,0,0,1,1,2,2,3,3,4,4,5,5,6,6],"right_children":[2,4,6,8,10,12,14,-1,-1,-1,-1,-1,-1,-1,-1],"split_conditions":[2.41E2,2.14E2,2.61E2,2E0,4.9E1,2E0,2.63E2,1.5075849E-2,-4.179549E-3,5.7986896E-2,9.990947E-3,-6.744108E-2,1.0414251E-2,1.9118369E-2,-1.972929E-3],"split_indices":[13,13,14,16,1,16,14,0,0,0,0,0,0,0,0],"split_type":[0,0,0,0,0,0,0,0,0,0,0,0,0,0,0],"sum_hessian":[3.89E2,2E2,1.89E2,1.84E2,1.6E1,1.9E1,1.7E2,4.4E1,1.4E2,8E0,8E0,1.1E1,8E0,1.2E1,1.58E2],"tree_param":{"num_deleted":"0","num_feature":"17","num_nodes":"15","size_leaf_vector":"1"}},{"base_weights":[1.9926378E-3,3.436955E-2,-2.232095E-3,8.644596E-4,9.713757E-2,-5.094258E-3,6.2601596E-2,5.553334E-3,-2.2724533E-2,4.8827507E-2,8.4044775E-3,-1.3158163E-4,-1.9065514E-2,2.2119427E-2,4.068518E-3],"categories":[],"categories_nodes":[],"categories_segments":[],"categories_sizes":[],"default_left":[0,0,0,0,0,0,0,0,0,0,0,0,0,0,0],"id":51,"left_children":[1,3,5,7,9,11,13,-1,-1,-1,-1,-1,-1,-1,-1],"loss_changes":[5.451667E-2,9.6656255E-2,6.582322E-2,4.3312985E-2,6.801444E-2,9.223355E-2,7.187158E-3,0E0,0E0,0E0,0E0,0E0,0E0,0E0,0E0],"parents":[2147483647,0,0,1,1,2,2,3,3,4,4,5,5,6,6],"right_children":[2,4,6,8,10,12,14,-1,-1,-1,-1,-1,-1,-1,-1],"split_conditions":[3E0,3.6E3,5.2E1,4.59E2,2.016E3,4.7E1,2.017E3,5.553334E-3,-2.2724533E-2,4.8827507E-2,8.4044775E-3,-1.3158163E-4,-1.9065514E-2,2.2119427E-2,4.068518E-3],"split_indices":[11,3,1,13,2,1,2,0,0,0,0,0,0,0,0],"split_type":[0,0,0,0,0,0,0,0,0,0,0,0,0,0,0],"sum_hessian":[3.97E2,4.5E1,3.52E2,3E1,1.5E1,3.38E2,1.4E1,2.5E1,5E0,7E0,8E0,3.14E2,2.4E1,1.1E1,3E0],"tree_param":{"num_deleted":"0","num_feature":"17","num_nodes":"15","size_leaf_vector":"1"}},{"base_weights":[4.295468E-3,2.5930466E-2,-2.4662793E-3,-2.4637973E-2,5.3310934E-2,-2.9678712E-2,7.281592E-3,-1.6425949E-2,2.2894837E-2,4.913435E-2,1.0689095E-2,3.8081035E-2,-1.3347904E-2,6.908979E-3,-2.9657858E-3],"categories":[],"categories_nodes":[],"categories_segments":[],"categories_sizes":[],"default_left":[0,0,0,0,0,0,0,0,0,0,0,0,0,0,0],"id":52,"left_children":[1,3,5,7,9,11,13,-1,-1,-1,-1,-1,-1,-1,-1],"loss_changes":[5.6532044E-2,1.2869553E-1,7.846878E-2,1.0450683E-1,1.11355335E-1,1.8661943E-1,5.9166215E-2,0E0,0E0,0E0,0E0,0E0,0E0,0E0,0E0],"parents":[2147483647,0,0,1,1,2,2,3,3,4,4,5,5,6,6],"right_children":[2,4,6,8,10,12,14,-1,-1,-1,-1,-1,-1,-1,-1],"split_conditions":[1.81E2,1.4E1,2.912E4,2.366E4,1.6E1,6E0,1.15E2,-1.6425949E-2,2.2894837E-2,4.913435E-2,1.0689095E-2,3.8081035E-2,-1.3347904E-2,6.908979E-3,-2.9657858E-3],"split_indices":[14,1,15,15,1,1,4,0,0,0,0,0,0,0,0],"split_type":[0,0,0,0,0,0,0,0,0,0,0,0,0,0,0],"sum_hessian":[3.85E2,9.1E1,2.94E2,3.2E1,5.9E1,7.7E1,2.17E2,2.5E1,7E0,7E0,5.2E1,6E0,7.1E1,1.13E2,1.04E2],"tree_param":{"num_deleted":"0","num_feature":"17","num_nodes":"15","size_leaf_vector":"1"}},{"base_weights":[-3.907551E-3,3.2662868E-3,-1.52838E-2,-1.6143028E-2,1.6775131E-2,4.297075E-3,-5.8703117E-2,7.1922396E-3,-1.2785626E-2,2.9271454E-2,8.190171E-4,9.446375E-3,-6.8924525E-3,-4.4462394E-2,-1.3355705E-2],"categories":[],"categories_nodes":[],"categories_segments":[],"categories_sizes":[],"default_left":[0,0,0,0,0,0,0,0,0,0,0,0,0,0,0],"id":53,"left_children":[1,3,5,7,9,11,13,-1,-1,-1,-1,-1,-1,-1,-1],"loss_changes":[3.1878352E-2,6.319819E-2,1.2863067E-1,1.06172696E-1,1.6087398E-1,7.858579E-2,5.307059E-2,0E0,0E0,0E0,0E0,0E0,0E0,0E0,0E0],"parents":[2147483647,0,0,1,1,2,2,3,3,4,4,5,5,6,6],"right_children":[2,4,6,8,10,12,14,-1,-1,-1,-1,-1,-1,-1,-1],"split_conditions":[3.3E1,2.784E4,4E0,2.32E4,1.95E2,2E0,2.86E2,7.1922396E-3,-1.2785626E-2,2.9271454E-2,8.190171E-4,9.446375E-3,-6.8924525E-3,-4.4462394E-2,-1.3355705E-2],"split_indices":[1,15,9,15,13,16,13,0,0,0,0,0,0,0,0],"split_type":[0,0,0,0,0,0,0,0,0,0,0,0,0,0,0],"sum_hessian":[3.89E2,2.39E2,1.5E2,9.8E1,1.41E2,1.04E2,4.6E1,3.9E1,5.9E1,2E1,1.21E2,5.2E1,5.2E1,5E0,4.1E1],"tree_param":{"num_deleted":"0","num_feature":"17","num_nodes":"15","size_leaf_vector":"1"}},{"base_weights":[2.0932565E-3,-3.16828E-3,2.4984699E-2,-2.925787E-2,5.8351876E-4,1.21064715E-1,1.1296933E-2,1.0723178E-2,-1.3987595E-2,1.8304605E-2,-2.0827397E-3,3.1944548E-3,1.0150452E-1,6.082249E-3,-1.2031575E-2],"categories":[],"categories_nodes":[],"categories_segments":[],"categories_sizes":[],"default_left":[0,0,0,0,0,0,0,0,0,0,0,0,0,0,0],"id":54,"left_children":[1,3,5,7,9,11,13,-1,-1,-1,-1,-1,-1,-1,-1],"loss_changes":[4.7052376E-2,3.1143831E-2,9.463617E-2,4.682318E-2,1.2731531E-1,2.123226E-1,3.08073E-2,0E0,0E0,0E0,0E0,0E0,0E0,0E0,0E0],"parents":[2147483647,0,0,1,1,2,2,3,3,4,4,5,5,6,6],"right_children":[2,4,6,8,10,12,14,-1,-1,-1,-1,-1,-1,-1,-1],"split_conditions":[2.97E2,5E0,2.64E2,1E0,1E1,2.99E2,4.59E2,1.0723178E-2,-1.3987595E-2,1.8304605E-2,-2.0827397E-3,3.1944548E-3,1.0150452E-1,6.082249E-3,-1.2031575E-2],"split_indices":[13,1,14,1,1,13,14,0,0,0,0,0,0,0,0],"split_type":[0,0,0,0,0,0,0,0,0,0,0,0,0,0,0],"sum_hessian":[3.89E2,3.17E2,7.2E1,3.9E1,2.78E2,8E0,6.4E1,8E0,3.1E1,3E1,2.48E2,6E0,2E0,5.5E1,9E0],"tree_param":{"num_deleted":"0","num_feature":"17","num_nodes":"15","size_leaf_vector":"1"}},{"base_weights":[1.1202692E-3,7.1305125E-3,-1.3700689E-2,3.0474765E-2,-1.4143413E-3,3.7459753E-2,-2.4555616E-2,6.219429E-3,3.2479763E-2,-3.8952995E-2,9.4689114E-4,-1.7127361E-2,5.5926777E-2,-4.2404976E-2,4.647119E-4],"categories":[],"categories_nodes":[],"categories_segments":[],"categories_sizes":[],"default_left":[0,0,0,0,0,0,0,0,0,0,0,0,0,0,0],"id":55,"left_children":[1,3,5,7,9,11,13,-1,-1,-1,-1,-1,-1,-1,-1],"loss_changes":[3.4570713E-2,5.509771E-2,6.311825E-2,5.384343E-2,1.1957148E-1,2.9233465E-1,2.8376433E-1,0E0,0E0,0E0,0E0,0E0,0E0,0E0,0E0],"parents":[2147483647,0,0,1,1,2,2,3,3,4,4,5,5,6,6],"right_children":[2,4,6,8,10,12,14,-1,-1,-1,-1,-1,-1,-1,-1],"split_conditions":[2.018E3,1E2,1.81E2,8E0,1.58E2,1.68E2,1.89E2,6.219429E-3,3.2479763E-2,-3.8952995E-2,9.4689114E-4,-1.7127361E-2,5.5926777E-2,-4.2404976E-2,4.647119E-4],"split_indices":[2,4,14,5,14,13,14,0,0,0,0,0,0,0,0],"split_type":[0,0,0,0,0,0,0,0,0,0,0,0,0,0,0],"sum_hessian":[3.86E2,2.75E2,1.11E2,7.3E1,2.02E2,1.9E1,9.2E1,6.6E1,7E0,6E0,1.96E2,1.2E1,7E0,1.6E1,7.6E1],"tree_param":{"num_deleted":"0","num_feature":"17","num_nodes":"15","size_leaf_vector":"1"}},{"base_weights":[7.3434465E-4,-6.2420047E-3,2.7895726E-2,-2.5257645E-3,-9.398254E-2,1.0360864E-1,5.978807E-3,1.4387522E-3,-1.0627325E-2,-5.1530212E-2,3.7290575E-3,2.1859504E-2,8.9326E-2,9.149902E-3,-8.871118E-3],"categories":[],"categories_nodes":[],"categories_segments":[],"categories_sizes":[],"default_left":[0,0,0,0,0,0,0,0,0,0,0,0,0,0,0],"id":56,"left_children":[1,3,5,7,9,11,13,-1,-1,-1,-1,-1,-1,-1,-1],"loss_changes":[7.047391E-2,9.6277826E-2,1.2549447E-1,6.8818115E-2,1.01462655E-1,7.977232E-2,5.3203706E-2,0E0,0E0,0E0,0E0,0E0,0E0,0E0,0E0],"parents":[2147483647,0,0,1,1,2,2,3,3,4,4,5,5,6,6],"right_children":[2,4,6,8,10,12,14,-1,-1,-1,-1,-1,-1,-1,-1],"split_conditions":[4.4E1,4.2E1,4.6E1,2.019E3,2.61E2,2.61E2,2E0,1.4387522E-3,-1.0627325E-2,-5.1530212E-2,3.7290575E-3,2.1859504E-2,8.9326E-2,9.149902E-3,-8.871118E-3],"split_indices":[1,1,1,2,14,14,16,0,0,0,0,0,0,0,0],"split_type":[0,0,0,0,0,0,0,0,0,0,0,0,0,0,0],"sum_hessian":[3.7E2,2.95E2,7.5E1,2.84E2,1.1E1,1.6E1,5.9E1,2.33E2,5.1E1,6E0,5E0,1.5E1,1E0,3.5E1,2.4E1],"tree_param":{"num_deleted":"0","num_feature":"17","num_nodes":"15","size_leaf_vector":"1"}},{"base_weights":[-2.0760163E-3,4.256664E-3,-2.030868E-2,-3.149553E-5,6.300602E-2,-2.4543783E-2,1.695841E-2,1.5535307E-3,-8.967758E-3,9.218252E-3,4.610882E-2,-4.079744E-3,-1.0420005E-2,9.330859E-3,-1.8706513E-3],"categories":[],"categories_nodes":[],"categories_segments":[],"categories_sizes":[],"default_left":[0,0,0,0,0,0,0,0,0,0,0,0,0,0,0],"id":57,"left_children":[1,3,5,7,9,11,13,-1,-1,-1,-1,-1,-1,-1,-1],"loss_changes":[4.5693796E-2,7.4068405E-2,1.6514871E-2,4.293762E-2,5.3824104E-2,9.787597E-3,3.8026595E-3,0E0,0E0,0E0,0E0,0E0,0E0,0E0,0E0],"parents":[2147483647,0,0,1,1,2,2,3,3,4,4,5,5,6,6],"right_children":[2,4,6,8,10,12,14,-1,-1,-1,-1,-1,-1,-1,-1],"split_conditions":[2.74E2,2.97E2,4.4E1,4.7E1,2.019E3,4E3,5.4E1,1.5535307E-3,-8.967758E-3,9.218252E-3,4.610882E-2,-4.079744E-3,-1.0420005E-2,9.330859E-3,-1.8706513E-3],"split_indices":[14,13,1,1,2,3,1,0,0,0,0,0,0,0,0],"split_type":[0,0,0,0,0,0,0,0,0,0,0,0,0,0,0],"sum_hessian":[3.94E2,2.93E2,1.01E2,2.74E2,1.9E1,9.1E1,1E1,2.34E2,4E1,1.5E1,4E0,4.5E1,4.6E1,6E0,4E0],"tree_param":{"num_deleted":"0","num_feature":"17","num_nodes":"15","size_leaf_vector":"1"}},{"base_weights":[-1.2216669E-4,-3.1883042E-2,2.524924E-3,-6.976554E-2,2.010815E-2,-2.166782E-3,2.1527138E-2,4.118872E-3,-6.7538455E-2,-2.8226853E-3,1.4025798E-2,1.0334363E-2,-1.8631299E-3,2.5045145E-2,8.312862E-4],"categories":[],"categories_nodes":[],"categories_segments":[],"categories_sizes":[],"default_left":[0,0,0,0,0,0,0,0,0,0,0,0,0,0,0],"id":58,"left_children":[1,3,5,7,9,11,13,-1,-1,-1,-1,-1,-1,-1,-1],"loss_changes":[3.1692296E-2,5.851999E-2,3.1071818E-2,2.2361526E-1,1.0663984E-2,4.166986E-2,7.995157E-2,0E0,0E0,0E0,0E0,0E0,0E0,0E0,0E0],"parents":[2147483647,0,0,1,1,2,2,3,3,4,4,5,5,6,6],"right_children":[2,4,6,8,10,12,14,-1,-1,-1,-1,-1,-1,-1,-1],"split_conditions":[2.011E3,1.8E1,4.4E1,1.85E2,3.5E1,3E0,4.6E1,4.118872E-3,-6.7538455E-2,-2.8226853E-3,1.4025798E-2,1.0334363E-2,-1.8631299E-3,2.5045145E-2,8.312862E-4],"split_indices":[2,6,1,14,1,11,1,0,0,0,0,0,0,0,0],"split_type":[0,0,0,0,0,0,0,0,0,0,0,0,0,0,0],"sum_hessian":[3.75E2,2.8E1,3.47E2,1.6E1,1.2E1,2.79E2,6.8E1,1.1E1,5E0,6E0,6E0,2.7E1,2.52E2,1.5E1,5.3E1],"tree_param":{"num_deleted":"0","num_feature":"17","num_nodes":"15","size_leaf_vector":"1"}},{"base_weights":[-4.095885E-4,-3.958255E-3,2.8484434E-2,-2.1229454E-3,-1.08828865E-1,9.9673465E-2,6.7087063E-3,-4.7527594E-3,1.0862977E-3,-4.156208E-3,-3.751591E-2,-3.176823E-2,6.0870472E-2,6.955256E-3,-5.5451123E-3],"categories":[],"categories_nodes":[],"categories_segments":[],"categories_sizes":[],"default_left":[0,0,0,0,0,0,0,0,0,0,0,0,0,0,0],"id":59,"left_children":[1,3,5,7,9,11,13,-1,-1,-1,-1,-1,-1,-1,-1],"loss_changes":[4.030657E-2,6.713348E-2,6.598961E-2,2.7244896E-2,7.5128376E-3,2.3368953E-1,1.4540472E-2,0E0,0E0,0E0,0E0,0E0,0E0,0E0,0E0],"parents":[2147483647,0,0,1,1,2,2,3,3,4,4,5,5,6,6],"right_children":[2,4,6,8,10,12,14,-1,-1,-1,-1,-1,-1,-1,-1],"split_conditions":[4.8E1,4.7E1,2.17E2,1.4E1,2.013E3,2.016E3,2.017E3,-4.7527594E-3,1.0862977E-3,-4.156208E-3,-3.751591E-2,-3.176823E-2,6.0870472E-2,6.955256E-3,-5.5451123E-3],"split_indices":[1,1,13,1,2,2,2,0,0,0,0,0,0,0,0],"split_type":[0,0,0,0,0,0,0,0,0,0,0,0,0,0,0],"sum_hessian":[3.91E2,3.49E2,4.2E1,3.44E2,5E0,9E0,3.3E1,1.01E2,2.43E2,1E0,4E0,3E0,6E0,2E1,1.3E1],"tree_param":{"num_deleted":"0","num_feature":"17","num_nodes":"15","size_leaf_vector":"1"}},{"base_weights":[-2.0147276E-3,-4.3063845E-2,-4.8501295E-4,-2.8336264E-2,-2.1839619E-2,2.562343E-2,-4.741205E-3,-3.3010484E-3,-1.0038186E-2,1.6940143E-2,5.738474E-4,-2.5138749E-2,-8.974805E-4],"categories":[],"categories_nodes":[],"categories_segments":[],"categories_sizes":[],"default_left":[0,0,0,0,0,0,0,0,0,0,0,0,0],"id":60,"left_children":[1,3,5,7,-1,9,11,-1,-1,-1,-1,-1,-1],"loss_changes":[2.4468549E-2,4.0680785E-3,4.2014685E-2,6.088279E-4,0E0,3.865211E-2,4.470144E-2,0E0,0E0,0E0,0E0,0E0,0E0],"parents":[2147483647,0,0,1,1,2,2,3,3,5,5,6,6],"right_children":[2,4,6,8,-1,10,12,-1,-1,-1,-1,-1,-1],"split_conditions":[2.8E3,1.44E2,3.2E3,6E0,-2.1839619E-2,8E0,1.58E2,-3.3010484E-3,-1.0038186E-2,1.6940143E-2,5.738474E-4,-2.5138749E-2,-8.974805E-4],"split_indices":[3,14,3,0,0,0,14,0,0,0,0,0,0],"split_type":[0,0,0,0,0,0,0,0,0,0,0,0,0],"sum_hessian":[3.89E2,1.3E1,3.76E2,1E1,3E0,5.2E1,3.24E2,3E0,7E0,2.2E1,3E1,6E0,3.18E2],"tree_param":{"num_deleted":"0","num_feature":"17","num_nodes":"13","size_leaf_vector":"1"}},{"base_weights":[-1.6432123E-3,2.1768989E-2,-4.3425276E-3,-2.11231E-2,5.006485E-2,-1.2560634E-2,3.3632154E-3,-9.5425425E-3,-1.5378E-3,3.493489E-2,6.8916925E-3,-1.4357902E-3,-3.2184795E-2,2.1972656E-2,-6.8775094E-5],"categories":[],"categories_nodes":[],"categories_segments":[],"categories_sizes":[],"default_left":[0,0,0,0,0,0,0,0,0,0,0,0,0,0,0],"id":61,"left_children":[1,3,5,7,9,11,13,-1,-1,-1,-1,-1,-1,-1,-1],"loss_changes":[2.5057316E-2,5.0817937E-2,2.252319E-2,2.7428446E-3,4.22882E-2,1.2615286E-1,4.620775E-2,0E0,0E0,0E0,0E0,0E0,0E0,0E0,0E0],"parents":[2147483647,0,0,1,1,2,2,3,3,4,4,5,5,6,6],"right_children":[2,4,6,8,10,12,14,-1,-1,-1,-1,-1,-1,-1,-1],"split_conditions":[2.24E4,1.4E1,2.61E2,1.27E2,1.6E1,2.58E2,2.62E2,-9.5425425E-3,-1.5378E-3,3.493489E-2,6.8916925E-3,-1.4357902E-3,-3.2184795E-2,2.1972656E-2,-6.8775094E-5],"split_indices":[15,1,14,14,1,14,14,0,0,0,0,0,0,0,0],"split_type":[0,0,0,0,0,0,0,0,0,0,0,0,0,0,0],"sum_hessian":[3.94E2,4E1,3.54E2,1.6E1,2.4E1,1.71E2,1.83E2,9E0,7E0,6E0,1.8E1,1.59E2,1.2E1,8E0,1.75E2],"tree_param":{"num_deleted":"0","num_feature":"17","num_nodes":"15","size_leaf_vector":"1"}},{"base_weights":[-1.0252763E-3,1.5690068E-2,-5.29546E-3,3.2300573E-2,-3.8464196E-2,-6.943029E-2,-1.5562533E-3,-8.483888E-3,1.528423E-2,-1.8683815E-2,-7.653073E-3,-2.7846623E-2,4.572573E-2,-1.5972069E-3,1.5042E-2],"categories":[],"categories_nodes":[],"categories_segments":[],"categories_sizes":[],"default_left":[0,0,0,0,0,0,0,0,0,0,0,0,0,0,0],"id":62,"left_children":[1,3,5,7,9,11,13,-1,-1,-1,-1,-1,-1,-1,-1],"loss_changes":[2.7706213E-2,7.230526E-2,7.3994294E-2,7.034823E-2,4.2727534E-3,1.0236855E-1,5.733736E-2,0E0,0E0,0E0,0E0,0E0,0E0,0E0,0E0],"parents":[2147483647,0,0,1,1,2,2,3,3,4,4,5,5,6,6],"right_children":[2,4,6,8,10,12,14,-1,-1,-1,-1,-1,-1,-1,-1],"split_conditions":[1.1E1,3.6E3,1.3E1,9.5E1,2.65E2,2.02E3,3E0,-8.483888E-3,1.528423E-2,-1.8683815E-2,-7.653073E-3,-2.7846623E-2,4.572573E-2,-1.5972069E-3,1.5042E-2],"split_indices":[1,3,1,4,14,2,16,0,0,0,0,0,0,0,0],"split_type":[0,0,0,0,0,0,0,0,0,0,0,0,0,0,0],"sum_hessian":[3.86E2,7.8E1,3.08E2,6E1,1.8E1,1.6E1,2.92E2,1.4E1,4.6E1,5E0,1.3E1,1.5E1,1E0,2.73E2,1.9E1],"tree_param":{"num_deleted":"0","num_feature":"17","num_nodes":"15","size_leaf_vector":"1"}},{"base_weights":[4.933852E-3,5.286789E-2,3.101845E-3,3.4147438E-2,2.733965E-2,7.7408585E-3,-9.6282E-3,1.8422557E-2,-8.673478E-3,1.2389603E-3,7.458845E-3,-1.4661801E-2,-4.4225212E-4],"categories":[],"categories_nodes":[],"categories_segments":[],"categories_sizes":[],"default_left":[0,0,0,0,0,0,0,0,0,0,0,0,0],"id":63,"left_children":[1,3,5,7,-1,9,11,-1,-1,-1,-1,-1,-1],"loss_changes":[3.338152E-2,6.9166124E-3,2.186577E-2,2.068505E-2,0E0,1.66525E-2,3.1607993E-2,0E0,0E0,0E0,0E0,0E0,0E0],"parents":[2147483647,0,0,1,1,2,2,3,3,5,5,6,6],"right_children":[2,4,6,8,-1,10,12,-1,-1,-1,-1,-1,-1],"split_conditions":[1E0,2.11E2,1.15E2,2.596E4,2.733965E-2,6E0,2.3E1,1.8422557E-2,-8.673478E-3,1.2389603E-3,7.458845E-3,-1.4661801E-2,-4.4225212E-4],"split_indices":[10,14,4,15,0,5,1,0,0,0,0,0,0],"split_type":[0,0,0,0,0,0,0,0,0,0,0,0,0],"sum_hessian":[3.81E2,1.3E1,3.68E2,1E1,3E0,2.7E2,9.8E1,7E0,3E0,2.24E2,4.6E1,1.6E1,8.2E1],"tree_param":{"num_deleted":"0","num_feature":"17","num_nodes":"13","size_leaf_vector":"1"}},{"base_weights":[2.6103733E-3,1.0181762E-2,-1.0372214E-2,1.3604379E-2,-4.0724277E-2,2.054809E-2,-1.9583879E-2,3.3018722E-3,4.8268605E-2,-3.1334687E-2,-7.2480342E-3,-4.452642E-3,1.7043417E-2,-1.1896339E-2,-5.473372E-4],"categories":[],"categories_nodes":[],"categories_segments":[],"categories_sizes":[],"default_left":[0,0,0,0,0,0,0,0,0,0,0,0,0,0,0],"id":64,"left_children":[1,3,5,7,9,11,13,-1,-1,-1,-1,-1,-1,-1,-1],"loss_changes":[3.8932618E-2,4.4111993E-2,4.1987225E-2,8.815952E-2,1.4365239E-2,4.447766E-2,4.0205598E-2,0E0,0E0,0E0,0E0,0E0,0E0,0E0,0E0],"parents":[2147483647,0,0,1,1,2,2,3,3,4,4,5,5,6,6],"right_children":[2,4,6,8,10,12,14,-1,-1,-1,-1,-1,-1,-1,-1],"split_conditions":[3.4E1,4.26E2,2E0,8E0,4.28E2,1.7E2,4.06E4,3.3018722E-3,4.8268605E-2,-3.1334687E-2,-7.2480342E-3,-4.452642E-3,1.7043417E-2,-1.1896339E-2,-5.473372E-4],"split_indices":[1,14,9,5,14,13,15,0,0,0,0,0,0,0,0],"split_type":[0,0,0,0,0,0,0,0,0,0,0,0,0,0,0],"sum_hessian":[3.94E2,2.49E2,1.45E2,2.34E2,1.5E1,3.3E1,1.12E2,2.31E2,3E0,2E0,1.3E1,1.7E1,1.6E1,5.2E1,6E1],"tree_param":{"num_deleted":"0","num_feature":"17","num_nodes":"15","size_leaf_vector":"1"}},{"base_weights":[-3.3795754E-3,1.2186193E-3,-1.5423623E-2,-5.7146074E-3,1.8114068E-2,-4.68204E-2,5.5838367E-3,1.1644533E-2,-2.9393125E-3,1.3445345E-3,9.6947765E-3,2.7834894E-3,-2.5157152E-2,5.8944944E-2,-2.046693E-3],"categories":[],"categories_nodes":[],"categories_segments":[],"categories_sizes":[],"default_left":[0,0,0,0,0,0,0,0,0,0,0,0,0,0,0],"id":65,"left_children":[1,3,5,7,9,11,13,-1,-1,-1,-1,-1,-1,-1,-1],"loss_changes":[2.1451196E-2,3.3019844E-2,7.0835054E-2,3.674416E-2,1.5730673E-2,9.0119764E-2,1.5528157E-1,0E0,0E0,0E0,0E0,0E0,0E0,0E0,0E0],"parents":[2147483647,0,0,1,1,2,2,3,3,4,4,5,5,6,6],"right_children":[2,4,6,8,10,12,14,-1,-1,-1,-1,-1,-1,-1,-1],"split_conditions":[2.018E3,8E0,3.4E3,1.63E2,4E0,1.84E2,3.016E4,1.1644533E-2,-2.9393125E-3,1.3445345E-3,9.6947765E-3,2.7834894E-3,-2.5157152E-2,5.8944944E-2,-2.046693E-3],"split_indices":[2,0,3,13,10,13,15,0,0,0,0,0,0,0,0],"split_type":[0,0,0,0,0,0,0,0,0,0,0,0,0,0,0],"sum_hessian":[3.86E2,2.8E2,1.06E2,1.99E2,8.1E1,4.2E1,6.4E1,1.6E1,1.83E2,4.2E1,3.9E1,1.7E1,2.5E1,3E0,6.1E1],"tree_param":{"num_deleted":"0","num_feature":"17","num_nodes":"15","size_leaf_vector":"1"}},{"base_weights":[-1.7192956E-3,1.2078675E-2,-5.6688143E-3,2.4478748E-2,-3.4241527E-2,-2.5202008E-2,-3.0210034E-3,-1.295993E-3,1.5084256E-2,6.033898E-3,-1.1513583E-2,4.2773536E-3,-2.4574571E-3],"categories":[],"categories_nodes":[],"categories_segments":[],"categories_sizes":[],"default_left":[0,0,0,0,0,0,0,0,0,0,0,0,0],"id":66,"left_children":[1,3,5,7,9,-1,11,-1,-1,-1,-1,-1,-1],"loss_changes":[2.1539636E-2,5.1383093E-2,6.342535E-2,5.223195E-2,5.044423E-3,0E0,2.6740303E-2,0E0,0E0,0E0,0E0,0E0,0E0],"parents":[2147483647,0,0,1,1,2,2,3,3,4,4,6,6],"right_children":[2,4,6,8,10,-1,12,-1,-1,-1,-1,-1,-1],"split_conditions":[1.2E1,1.8E1,1.3E1,1.9E2,2.572E4,-2.5202008E-2,1.81E2,-1.295993E-3,1.5084256E-2,6.033898E-3,-1.1513583E-2,4.2773536E-3,-2.4574571E-3],"split_indices":[1,6,1,13,15,0,14,0,0,0,0,0,0],"split_type":[0,0,0,0,0,0,0,0,0,0,0,0,0],"sum_hessian":[3.93E2,8.7E1,3.06E2,6.9E1,1.8E1,9E0,2.97E2,3.3E1,3.6E1,1E0,1.7E1,6.8E1,2.29E2],"tree_param":{"num_deleted":"0","num_feature":"17","num_nodes":"13","size_leaf_vector":"1"}},{"base_weights":[6.9615824E-5,5.298401E-3,-1.3283082E-2,-5.4986537E-3,1.24865575E-2,-4.3905094E-2,6.2786E-4,-9.639863E-3,2.907712E-3,8.883031E-3,1.0544526E-3,-9.383907E-4,-3.3801578E-2,9.2101395E-3,-4.2409757E-3],"categories":[],"categories_nodes":[],"categories_segments":[],"categories_sizes":[],"default_left":[0,0,0,0,0,0,0,0,0,0,0,0,0,0,0],"id":67,"left_children":[1,3,5,7,9,11,13,-1,-1,-1,-1,-1,-1,-1,-1],"loss_changes":[2.778828E-2,2.2265382E-2,4.773745E-2,4.6840575E-2,2.6319867E-2,9.7791545E-2,3.506641E-2,0E0,0E0,0E0,0E0,0E0,0E0,0E0,0E0],"parents":[2147483647,0,0,1,1,2,2,3,3,4,4,5,5,6,6],"right_children":[2,4,6,8,10,12,14,-1,-1,-1,-1,-1,-1,-1,-1],"split_conditions":[2.018E3,2.3E1,1.88E2,4E0,3.4E1,1.84E2,2.68E2,-9.639863E-3,2.907712E-3,8.883031E-3,1.0544526E-3,-9.383907E-4,-3.3801578E-2,9.2101395E-3,-4.2409757E-3],"split_indices":[2,1,14,11,1,14,14,0,0,0,0,0,0,0,0],"split_type":[0,0,0,0,0,0,0,0,0,0,0,0,0,0,0],"sum_hessian":[3.96E2,2.85E2,1.11E2,1.14E2,1.71E2,3.4E1,7.7E1,4.1E1,7.3E1,5.8E1,1.13E2,2.2E1,1.2E1,2.5E1,5.2E1],"tree_param":{"num_deleted":"0","num_feature":"17","num_nodes":"15","size_leaf_vector":"1"}},{"base_weights":[-5.7228934E-3,-1.5329843E-2,1.1888267E-3,-1.025476E-2,-5.08502E-2,1.8275807E-2,-4.4138613E-3,-1.0324562E-2,-1.6732587E-3,-7.3558693E-3,-3.7481464E-2,-5.1765447E-3,1.0261829E-2,-1.18777035E-2,3.9617438E-4],"categories":[],"categories_nodes":[],"categories_segments":[],"categories_sizes":[],"default_left":[0,0,0,0,0,0,0,0,0,0,0,0,0,0,0],"id":68,"left_children":[1,3,5,7,9,11,13,-1,-1,-1,-1,-1,-1,-1,-1],"loss_changes":[2.5715236E-2,2.868209E-2,2.1716326E-2,1.5967615E-2,3.595225E-2,3.2287262E-2,3.4547944E-2,0E0,0E0,0E0,0E0,0E0,0E0,0E0,0E0],"parents":[2147483647,0,0,1,1,2,2,3,3,4,4,5,5,6,6],"right_children":[2,4,6,8,10,12,14,-1,-1,-1,-1,-1,-1,-1,-1],"split_conditions":[2.3E1,2.1E1,1.86E2,3E0,2.019E3,1.58E2,2.17E2,-1.0324562E-2,-1.6732587E-3,-7.3558693E-3,-3.7481464E-2,-5.1765447E-3,1.0261829E-2,-1.18777035E-2,3.9617438E-4],"split_indices":[1,1,14,10,2,14,14,0,0,0,0,0,0,0,0],"split_type":[0,0,0,0,0,0,0,0,0,0,0,0,0,0,0],"sum_hessian":[3.86E2,1.61E2,2.25E2,1.42E2,1.9E1,5.5E1,1.7E2,2.2E1,1.2E2,1.5E1,4E0,1.7E1,3.8E1,2.3E1,1.47E2],"tree_param":{"num_deleted":"0","num_feature":"17","num_nodes":"15","size_leaf_vector":"1"}},{"base_weights":[-4.3865014E-4,1.2485471E-2,-2.7039924E-3,-1.4808178E-3,7.827511E-2,-1.4157717E-2,4.1590394E-3,3.5082211E-3,-8.568442E-3,2.7262546E-2,5.5749896E-3,-2.199843E-3,-4.346514E-2,3.741229E-2,-3.7135498E-5],"categories":[],"categories_nodes":[],"categories_segments":[],"categories_sizes":[],"default_left":[0,0,0,0,0,0,0,0,0,0,0,0,0,0,0],"id":69,"left_children":[1,3,5,7,9,11,13,-1,-1,-1,-1,-1,-1,-1,-1],"loss_changes":[1.1188511E-2,5.2489623E-2,2.5606247E-2,1.7459659E-2,5.83243E-3,1.0778519E-1,1.0533827E-1,0E0,0E0,0E0,0E0,0E0,0E0,0E0,0E0],"parents":[2147483647,0,0,1,1,2,2,3,3,4,4,5,5,6,6],"right_children":[2,4,6,8,10,12,14,-1,-1,-1,-1,-1,-1,-1,-1],"split_conditions":[2.36E4,1.79E2,2.14E2,2.204E4,1.85E2,3.6E3,2.31E2,3.5082211E-3,-8.568442E-3,2.7262546E-2,5.5749896E-3,-2.199843E-3,-4.346514E-2,3.741229E-2,-3.7135498E-5],"split_indices":[15,14,13,15,14,3,13,0,0,0,0,0,0,0,0],"split_type":[0,0,0,0,0,0,0,0,0,0,0,0,0,0,0],"sum_hessian":[3.8E2,5.6E1,3.24E2,4.7E1,9E0,1.21E2,2.03E2,3.2E1,1.5E1,7E0,2E0,1.16E2,5E0,6E0,1.97E2],"tree_param":{"num_deleted":"0","num_feature":"17","num_nodes":"15","size_leaf_vector":"1"}},{"base_weights":[-5.515538E-4,9.07269E-4,-2.3018757E-2,-1.8444259E-2,2.5455353E-3,4.1514807E-3,-5.5506445E-2,-7.699042E-2,-2.3157938E-4,-1.8928965E-3,2.1534832E-3,3.5891056E-3,-8.54435E-3,-3.8615228E-3,-1.7544825E-2],"categories":[],"categories_nodes":[],"categories_segments":[],"categories_sizes":[],"default_left":[0,0,0,0,0,0,0,0,0,0,0,0,0,0,0],"id":70,"left_children":[1,3,5,7,9,11,13,-1,-1,-1,-1,-1,-1,-1,-1],"loss_changes":[1.2901723E-2,1.1777043E-2,2.1415189E-2,1.2187391E-1,1.4075436E-2,3.9098E-3,6.430559E-4,0E0,0E0,0E0,0E0,0E0,0E0,0E0,0E0],"parents":[2147483647,0,0,1,1,2,2,3,3,4,4,5,5,6,6],"right_children":[2,4,6,8,10,12,14,-1,-1,-1,-1,-1,-1,-1,-1],"split_conditions":[1.45E2,2.011E3,3.3E1,1E0,1.86E2,2.98E2,2.011E3,-7.699042E-2,-2.3157938E-4,-1.8928965E-3,2.1534832E-3,3.5891056E-3,-8.54435E-3,-3.8615228E-3,-1.7544825E-2],"split_indices":[4,2,1,10,14,13,2,0,0,0,0,0,0,0,0],"split_type":[0,0,0,0,0,0,0,0,0,0,0,0,0,0,0],"sum_hessian":[3.92E2,3.69E2,2.3E1,2.8E1,3.41E2,1.3E1,1E1,1E0,2.7E1,1.17E2,2.24E2,1.1E1,2E0,1E0,9E0],"tree_param":{"num_deleted":"0","num_feature":"17","num_nodes":"15","size_leaf_vector":"1"}},{"base_weights":[1.6619348E-3,5.7166046E-3,-1.0561009E-2,1.0021338E-2,-4.8845853E-3,-6.6435814E-2,-8.071006E-3,2.3307241E-3,2.9972764E-2,-2.0853424E-2,-2.504914E-4,5.9511187E-3,-4.8788168E-2,1.3005067E-2,-3.2514192E-3],"categories":[],"categories_nodes":[],"categories_segments":[],"categories_sizes":[],"default_left":[0,0,0,0,0,0,0,0,0,0,0,0,0,0,0],"id":71,"left_children":[1,3,5,7,9,11,13,-1,-1,-1,-1,-1,-1,-1,-1],"loss_changes":[1.9289654E-2,1.3374456E-2,1.295925E-2,4.1333545E-2,2.2187624E-2,3.642088E-2,1.3844669E-2,0E0,0E0,0E0,0E0,0E0,0E0,0E0,0E0],"parents":[2147483647,0,0,1,1,2,2,3,3,4,4,5,5,6,6],"right_children":[2,4,6,8,10,12,14,-1,-1,-1,-1,-1,-1,-1,-1],"split_conditions":[1E0,1.2E2,2.808E4,2.99E2,2.61E2,4E0,3.06E4,2.3307241E-3,2.9972764E-2,-2.0853424E-2,-2.504914E-4,5.9511187E-3,-4.8788168E-2,1.3005067E-2,-3.2514192E-3],"split_indices":[12,4,15,13,14,0,15,0,0,0,0,0,0,0,0],"split_type":[0,0,0,0,0,0,0,0,0,0,0,0,0,0,0],"sum_hessian":[3.87E2,2.91E2,9.6E1,2.07E2,8.4E1,3E0,9.3E1,2.03E2,4E0,4E0,8E1,2E0,1E0,4E0,8.9E1],"tree_param":{"num_deleted":"0","num_feature":"17","num_nodes":"15","size_leaf_vector":"1"}},{"base_weights":[2.1543552E-3,-2.0708414E-2,3.9799516E-3,-5.4320607E-2,9.996533E-3,2.8530192E-2,1.9953195E-3,-1.1071968E-2,-3.176098E-2,1.0141101E-2,-2.3004343E-3,1.3808728E-2,-2.5078727E-2,2.1052163E-3,-1.52571E-3],"categories":[],"categories_nodes":[],"categories_segments":[],"categories_sizes":[],"default_left":[0,0,0,0,0,0,0,0,0,0,0,0,0,0,0],"id":72,"left_children":[1,3,5,7,9,11,13,-1,-1,-1,-1,-1,-1,-1,-1],"loss_changes":[1.636031E-2,3.0472778E-2,1.7580869E-2,8.660257E-3,6.9879247E-3,5.6824006E-2,1.1984306E-2,0E0,0E0,0E0,0E0,0E0,0E0,0E0,0E0],"parents":[2147483647,0,0,1,1,2,2,3,3,4,4,5,5,6,6],"right_children":[2,4,6,8,10,12,14,-1,-1,-1,-1,-1,-1,-1,-1],"split_conditions":[1E0,4.06E4,2.011E3,3.92E4,2.94E2,9E0,2.52E2,-1.1071968E-2,-3.176098E-2,1.0141101E-2,-2.3004343E-3,1.3808728E-2,-2.5078727E-2,2.1052163E-3,-1.52571E-3],"split_indices":[0,15,2,15,13,10,13,0,0,0,0,0,0,0,0],"split_type":[0,0,0,0,0,0,0,0,0,0,0,0,0,0,0],"sum_hessian":[3.89E2,2.8E1,3.61E2,1.3E1,1.5E1,2.6E1,3.35E2,1.1E1,2E0,6E0,9E0,2.3E1,3E0,1.96E2,1.39E2],"tree_param":{"num_deleted":"0","num_feature":"17","num_nodes":"15","size_leaf_vector":"1"}},{"base_weights":[1.1182242E-3,-1.7775508E-3,1.1826174E-2,-4.496839E-3,1.7876726E-2,7.424164E-2,-5.118669E-3,-9.124625E-4,-9.391962E-3,1.0861265E-2,-2.8759004E-3,1.6819753E-2,5.7484534E-2,-4.1923258E-3,5.929502E-3],"categories":[],"categories_nodes":[],"categories_segments":[],"categories_sizes":[],"default_left":[0,0,0,0,0,0,0,0,0,0,0,0,0,0,0],"id":73,"left_children":[1,3,5,7,9,11,13,-1,-1,-1,-1,-1,-1,-1,-1],"loss_changes":[1.2238101E-2,1.6701983E-2,8.922012E-2,1.0595188E-2,1.9473566E-2,2.7657352E-2,1.5040565E-2,0E0,0E0,0E0,0E0,0E0,0E0,0E0,0E0],"parents":[2147483647,0,0,1,1,2,2,3,3,4,4,5,5,6,6],"right_children":[2,4,6,8,10,12,14,-1,-1,-1,-1,-1,-1,-1,-1],"split_conditions":[4.4E1,9E0,4.6E1,4.1E1,1.1E1,2.98E2,1.05E2,-9.124625E-4,-9.391962E-3,1.0861265E-2,-2.8759004E-3,1.6819753E-2,5.7484534E-2,-4.1923258E-3,5.929502E-3],"split_indices":[1,10,1,1,10,13,4,0,0,0,0,0,0,0,0],"split_type":[0,0,0,0,0,0,0,0,0,0,0,0,0,0,0],"sum_hessian":[3.93E2,3.1E2,8.3E1,2.73E2,3.7E1,1.7E1,6.6E1,2.6E2,1.3E1,2.2E1,1.5E1,1.6E1,1E0,4.9E1,1.7E1],"tree_param":{"num_deleted":"0","num_feature":"17","num_nodes":"15","size_leaf_vector":"1"}},{"base_weights":[8.029139E-4,-2.078084E-3,1.3236072E-2,4.541463E-4,-3.5363022E-2,5.852914E-2,2.9001737E-4,1.0512902E-3,-3.7926137E-3,-2.9633677E-2,-4.734866E-3,1.2214393E-2,4.8861984E-2,-8.148995E-3,4.4194525E-3],"categories":[],"categories_nodes":[],"categories_segments":[],"categories_sizes":[],"default_left":[0,0,0,0,0,0,0,0,0,0,0,0,0,0,0],"id":74,"left_children":[1,3,5,7,9,11,13,-1,-1,-1,-1,-1,-1,-1,-1],"loss_changes":[1.3710708E-2,2.6228735E-2,4.2201415E-2,1.1628469E-2,2.5758205E-2,2.3110077E-2,2.2998776E-2,0E0,0E0,0E0,0E0,0E0,0E0,0E0,0E0],"parents":[2147483647,0,0,1,1,2,2,3,3,4,4,5,5,6,6],"right_children":[2,4,6,8,10,12,14,-1,-1,-1,-1,-1,-1,-1,-1],"split_conditions":[4.4E1,4.1E1,4.6E1,2.019E3,1.15E2,2.98E2,4.9E1,1.0512902E-3,-3.7926137E-3,-2.9633677E-2,-4.734866E-3,1.2214393E-2,4.8861984E-2,-8.148995E-3,4.4194525E-3],"split_indices":[1,1,1,2,4,13,1,0,0,0,0,0,0,0,0],"split_type":[0,0,0,0,0,0,0,0,0,0,0,0,0,0,0],"sum_hessian":[3.81E2,3.1E2,7.1E1,2.89E2,2.1E1,1.5E1,5.6E1,2.35E2,5.4E1,4E0,1.7E1,1.4E1,1E0,1.9E1,3.7E1],"tree_param":{"num_deleted":"0","num_feature":"17","num_nodes":"15","size_leaf_vector":"1"}},{"base_weights":[-1.1381173E-3,-2.2660574E-2,3.879101E-5,-6.049087E-2,1.7229773E-2,1.1346092E-2,-2.8710319E-3,-6.3852314E-3,-6.788378E-2,8.54465E-4,1.01754E-2,1.014433E-2,-2.7757646E-3,-1.69693E-2,-3.7357307E-4],"categories":[],"categories_nodes":[],"categories_segments":[],"categories_sizes":[],"default_left":[0,0,0,0,0,0,0,0,0,0,0,0,0,0,0],"id":75,"left_children":[1,3,5,7,9,11,13,-1,-1,-1,-1,-1,-1,-1,-1],"loss_changes":[1.0259512E-2,3.2732576E-2,1.2699939E-2,6.668414E-2,2.5434238E-3,3.687543E-2,2.6728803E-2,0E0,0E0,0E0,0E0,0E0,0E0,0E0,0E0],"parents":[2147483647,0,0,1,1,2,2,3,3,4,4,5,5,6,6],"right_children":[2,4,6,8,10,12,14,-1,-1,-1,-1,-1,-1,-1,-1],"split_conditions":[2E0,2.42E4,1.2E1,3.3E3,2.07E2,3.016E4,1.3E1,-6.3852314E-3,-6.788378E-2,8.54465E-4,1.01754E-2,1.014433E-2,-2.7757646E-3,-1.69693E-2,-3.7357307E-4],"split_indices":[10,15,1,3,14,15,1,0,0,0,0,0,0,0,0],"split_type":[0,0,0,0,0,0,0,0,0,0,0,0,0,0,0],"sum_hessian":[4.04E2,2E1,3.84E2,1E1,1E1,7.8E1,3.06E2,9E0,1E0,6E0,4E0,3.7E1,4.1E1,8E0,2.98E2],"tree_param":{"num_deleted":"0","num_feature":"17","num_nodes":"15","size_leaf_vector":"1"}},{"base_weights":[-2.3546119E-3,-8.581824E-3,2.5801815E-3,-3.4968708E-2,2.08653E-3,7.79555E-3,-9.3120225E-3,-7.4882926E-3,-4.2394638E-2,2.1731922E-2,-6.5307296E-4,6.862942E-5,9.269622E-3,-2.9225064E-2,-1.9373528E-3],"categories":[],"categories_nodes":[],"categories_segments":[],"categories_sizes":[],"default_left":[0,0,0,0,0,0,0,0,0,0,0,0,0,0,0],"id":76,"left_children":[1,3,5,7,9,11,13,-1,-1,-1,-1,-1,-1,-1,-1],"loss_changes":[1.1822464E-2,4.7928747E-2,1.3407372E-2,4.8622835E-2,3.6751185E-2,2.621546E-2,1.596773E-2,0E0,0E0,0E0,0E0,0E0,0E0,0E0,0E0],"parents":[2147483647,0,0,1,1,2,2,3,3,4,4,5,5,6,6],"right_children":[2,4,6,8,10,12,14,-1,-1,-1,-1,-1,-1,-1,-1],"split_conditions":[5E0,2.14E2,2.52E2,2.12E2,2.19E2,2.756E4,2.53E2,-7.4882926E-3,-4.2394638E-2,2.1731922E-2,-6.5307296E-4,6.862942E-5,9.269622E-3,-2.9225064E-2,-1.9373528E-3],"split_indices":[0,13,13,13,13,15,14,0,0,0,0,0,0,0,0],"split_type":[0,0,0,0,0,0,0,0,0,0,0,0,0,0,0],"sum_hessian":[3.83E2,1.69E2,2.14E2,4.8E1,1.21E2,1.49E2,6.5E1,4.5E1,3E0,6E0,1.15E2,1.13E2,3.6E1,1E0,6.4E1],"tree_param":{"num_deleted":"0","num_feature":"17","num_nodes":"15","size_leaf_vector":"1"}},{"base_weights":[8.203612E-4,1.8316704E-3,-2.0631261E-2,6.2279473E-4,3.4683753E-2,-2.7489472E-2,-6.0292482E-3,1.2165819E-3,-1.5331336E-3,3.2866288E-3,-3.781128E-3],"categories":[],"categories_nodes":[],"categories_segments":[],"categories_sizes":[],"default_left":[0,0,0,0,0,0,0,0,0,0,0],"id":77,"left_children":[1,3,5,7,-1,-1,9,-1,-1,-1,-1],"loss_changes":[8.67209E-3,5.2333362E-2,1.8108984E-2,7.459469E-3,0E0,0E0,1.9247348E-3,0E0,0E0,0E0,0E0],"parents":[2147483647,0,0,1,1,2,2,3,3,6,6],"right_children":[2,4,6,8,-1,-1,10,-1,-1,-1,-1],"split_conditions":[4.26E2,4.62E2,4.28E2,7E0,3.4683753E-2,-2.7489472E-2,4.58E2,1.2165819E-3,-1.5331336E-3,3.2866288E-3,-3.781128E-3],"split_indices":[14,13,14,0,0,0,14,0,0,0,0],"split_type":[0,0,0,0,0,0,0,0,0,0,0],"sum_hessian":[3.97E2,3.8E2,1.7E1,3.77E2,3E0,2E0,1.5E1,2.36E2,1.41E2,4E0,1.1E1],"tree_param":{"num_deleted":"0","num_feature":"17","num_nodes":"11","size_leaf_vector":"1"}},{"base_weights":[-3.4404714E-3,-2.0669302E-2,-1.9623311E-3,-3.716555E-2,-1.2838232E-2,-1.0234676E-2,2.415108E-3,-1.3893185E-2,1.3619614E-3,-1.4675687E-4,-1.9954428E-2,1.3778476E-2,-4.4330547E-4],"categories":[],"categories_nodes":[],"categories_segments":[],"categories_sizes":[],"default_left":[0,0,0,0,0,0,0,0,0,0,0,0,0],"id":78,"left_children":[1,3,5,-1,7,9,11,-1,-1,-1,-1,-1,-1],"loss_changes":[9.662226E-3,2.2658251E-2,1.2771232E-2,0E0,1.7079154E-2,6.688163E-2,3.9196417E-2,0E0,0E0,0E0,0E0,0E0,0E0],"parents":[2147483647,0,0,1,1,2,2,4,4,5,5,6,6],"right_children":[2,4,6,-1,8,10,12,-1,-1,-1,-1,-1,-1],"split_conditions":[2.011E3,1E0,1.86E2,-3.716555E-2,2.3E1,1.84E2,1.94E2,-1.3893185E-2,1.3619614E-3,-1.4675687E-4,-1.9954428E-2,1.3778476E-2,-4.4330547E-4],"split_indices":[2,16,14,0,1,14,13,0,0,0,0,0,0],"split_type":[0,0,0,0,0,0,0,0,0,0,0,0,0],"sum_hessian":[3.8E2,2.9E1,3.51E2,1E0,2.8E1,1.21E2,2.3E2,9E0,1.9E1,1.04E2,1.7E1,1.8E1,2.12E2],"tree_param":{"num_deleted":"0","num_feature":"17","num_nodes":"13","size_leaf_vector":"1"}},{"base_weights":[3.7218598E-3,-2.946507E-3,8.661313E-3,1.02483835E-2,-1.7094184E-2,4.991355E-2,3.172889E-3,4.8220064E-3,-8.103514E-3,-7.7432236E-3,1.6361302E-2,3.2249452E-3,3.6808524E-2,-1.0636539E-2,1.5632083E-3],"categories":[],"categories_nodes":[],"categories_segments":[],"categories_sizes":[],"default_left":[0,0,0,0,0,0,0,0,0,0,0,0,0,0,0],"id":79,"left_children":[1,3,5,7,9,11,13,-1,-1,-1,-1,-1,-1,-1,-1],"loss_changes":[1.2739621E-2,3.09769E-2,5.0104596E-2,1.9099519E-2,5.1358335E-2,7.279136E-2,1.5691869E-2,0E0,0E0,0E0,0E0,0E0,0E0,0E0,0E0],"parents":[2147483647,0,0,1,1,2,2,3,3,4,4,5,5,6,6],"right_children":[2,4,6,8,10,12,14,-1,-1,-1,-1,-1,-1,-1,-1],"split_conditions":[3.4E3,2.016E3,1.92E2,4.8E1,5E1,1.85E2,2.17E2,4.8220064E-3,-8.103514E-3,-7.7432236E-3,1.6361302E-2,3.2249452E-3,3.6808524E-2,-1.0636539E-2,1.5632083E-3],"split_indices":[3,2,14,1,1,14,14,0,0,0,0,0,0,0,0],"split_type":[0,0,0,0,0,0,0,0,0,0,0,0,0,0,0],"sum_hessian":[3.85E2,1.64E2,2.21E2,8.5E1,7.9E1,2.5E1,1.96E2,7.4E1,1.1E1,7.1E1,8E0,1.7E1,8E0,9E0,1.87E2],"tree_param":{"num_deleted":"0","num_feature":"17","num_nodes":"15","size_leaf_vector":"1"}},{"base_weights":[2.7954142E-4,-5.573128E-3,3.8440689E-3,-2.3831947E-2,5.8498383E-3,7.1035035E-2,5.855393E-4,-3.8853265E-2,-3.9636614E-3,3.9999345E-3,-8.12056E-3,4.9048234E-2,9.69677E-3,8.19643E-3,-1.9138545E-4],"categories":[],"categories_nodes":[],"categories_segments":[],"categories_sizes":[],"default_left":[0,0,0,0,0,0,0,0,0,0,0,0,0,0,0],"id":80,"left_children":[1,3,5,7,9,11,13,-1,-1,-1,-1,-1,-1,-1,-1],"loss_changes":[7.990708E-3,3.0382045E-2,5.206702E-2,6.1136726E-2,2.253126E-2,3.4087967E-2,7.4755657E-3,0E0,0E0,0E0,0E0,0E0,0E0,0E0,0E0],"parents":[2147483647,0,0,1,1,2,2,3,3,4,4,5,5,6,6],"right_children":[2,4,6,8,10,12,14,-1,-1,-1,-1,-1,-1,-1,-1],"split_conditions":[2.756E4,4E0,2.808E4,8E0,2.544E4,1.1E1,1E0,-3.8853265E-2,-3.9636614E-3,3.9999345E-3,-8.12056E-3,4.9048234E-2,9.69677E-3,8.19643E-3,-1.9138545E-4],"split_indices":[15,11,15,1,15,1,1,0,0,0,0,0,0,0,0],"split_type":[0,0,0,0,0,0,0,0,0,0,0,0,0,0,0],"sum_hessian":[3.81E2,1.44E2,2.37E2,5.5E1,8.9E1,1E1,2.27E2,4E0,5.1E1,7.3E1,1.6E1,2E0,8E0,9E0,2.18E2],"tree_param":{"num_deleted":"0","num_feature":"17","num_nodes":"15","size_leaf_vector":"1"}},{"base_weights":[-1.8384481E-3,-5.6947046E-3,5.4306453E-3,-2.208369E-3,-3.0702591E-2,1.8347904E-2,2.3644913E-3,2.2056445E-3,-2.8705162E-3,-5.2486327E-2,-6.0187154E-3,2.2815086E-2,1.9482204E-6],"categories":[],"categories_nodes":[],"categories_segments":[],"categories_sizes":[],"default_left":[0,0,0,0,0,0,0,0,0,0,0,0,0],"id":81,"left_children":[1,3,5,7,9,-1,11,-1,-1,-1,-1,-1,-1],"loss_changes":[1.0907143E-2,2.2077411E-2,2.2923352E-2,1.5832236E-2,4.4070944E-2,0E0,2.2413371E-2,0E0,0E0,0E0,0E0,0E0,0E0],"parents":[2147483647,0,0,1,1,2,2,3,3,4,4,6,6],"right_children":[2,4,6,8,10,-1,12,-1,-1,-1,-1,-1,-1],"split_conditions":[3.8E3,1.1E2,1.5E1,2.592E4,2.04E2,1.8347904E-2,2.95E4,2.2056445E-3,-2.8705162E-3,-5.2486327E-2,-6.0187154E-3,2.2815086E-2,1.9482204E-6],"split_indices":[3,4,1,15,14,0,15,0,0,0,0,0,0],"split_type":[0,0,0,0,0,0,0,0,0,0,0,0,0],"sum_hessian":[3.87E2,2.53E2,1.34E2,2.23E2,3E1,6E0,1.28E2,9.7E1,1.26E2,1E0,2.9E1,3E0,1.25E2],"tree_param":{"num_deleted":"0","num_feature":"17","num_nodes":"13","size_leaf_vector":"1"}},{"base_weights":[4.250725E-4,-1.1608831E-2,2.329488E-3,-5.014499E-3,-5.5168696E-2,3.9114382E-2,1.1894148E-3,-3.1340742E-3,3.754635E-2,-1.0071183E-2,-2.7713586E-2,9.053789E-3,-1.7759407E-5],"categories":[],"categories_nodes":[],"categories_segments":[],"categories_sizes":[],"default_left":[0,0,0,0,0,0,0,0,0,0,0,0,0],"id":82,"left_children":[1,3,5,7,9,-1,11,-1,-1,-1,-1,-1,-1],"loss_changes":[9.056558E-3,1.5234759E-2,4.962697E-2,3.5249814E-2,2.5244355E-3,0E0,1.2272616E-2,0E0,0E0,0E0,0E0,0E0,0E0],"parents":[2147483647,0,0,1,1,2,2,3,3,4,4,6,6],"right_children":[2,4,6,8,10,-1,12,-1,-1,-1,-1,-1,-1],"split_conditions":[1.58E2,4.7E1,1.6E2,1.48E2,2.016E3,3.9114382E-2,2.36E4,-3.1340742E-3,3.754635E-2,-1.0071183E-2,-2.7713586E-2,9.053789E-3,-1.7759407E-5],"split_indices":[14,1,14,14,2,0,15,0,0,0,0,0,0],"split_type":[0,0,0,0,0,0,0,0,0,0,0,0,0],"sum_hessian":[3.93E2,5.3E1,3.4E2,4.7E1,6E0,2E0,3.38E2,4.6E1,1E0,5E0,1E0,1.3E1,3.25E2],"tree_param":{"num_deleted":"0","num_feature":"17","num_nodes":"13","size_leaf_vector":"1"}},{"base_weights":[5.880451E-4,-4.956749E-3,4.3052277E-3,-1.7947735E-2,1.7671853E-3,-4.4610787E-2,5.5676145E-3,3.0388305E-4,-1.0494567E-2,2.5161186E-3,-8.800416E-3,8.67243E-3,-4.355574E-5],"categories":[],"categories_nodes":[],"categories_segments":[],"categories_sizes":[],"default_left":[0,0,0,0,0,0,0,0,0,0,0,0,0],"id":83,"left_children":[1,3,5,7,9,-1,11,-1,-1,-1,-1,-1,-1],"loss_changes":[8.265744E-3,1.4095153E-2,4.7185145E-2,1.7799292E-2,2.2276348E-2,0E0,3.1872347E-2,0E0,0E0,0E0,0E0,0E0,0E0],"parents":[2147483647,0,0,1,1,2,2,3,3,4,4,6,6],"right_children":[2,4,6,8,10,-1,12,-1,-1,-1,-1,-1,-1],"split_conditions":[3.4E3,4E0,1.71E2,1E2,5E0,-4.4610787E-2,2.37E2,3.0388305E-4,-1.0494567E-2,2.5161186E-3,-8.800416E-3,8.67243E-3,-4.355574E-5],"split_indices":[3,11,13,4,10,0,14,0,0,0,0,0,0],"split_type":[0,0,0,0,0,0,0,0,0,0,0,0,0],"sum_hessian":[3.99E2,1.6E2,2.39E2,5.4E1,1.06E2,1E0,2.38E2,2.6E1,2.8E1,8.8E1,1.8E1,4.6E1,1.92E2],"tree_param":{"num_deleted":"0","num_feature":"17","num_nodes":"13","size_leaf_vector":"1"}},{"base_weights":[-2.9366175E-3,-3.5114016E-2,-1.7339115E-3,-8.111763E-3,-1.671257E-2,2.4454499E-2,-2.4408414E-3,9.053294E-3,-4.058075E-3,-1.152687E-3,2.6490842E-3],"categories":[],"categories_nodes":[],"categories_segments":[],"categories_sizes":[],"default_left":[0,0,0,0,0,0,0,0,0,0,0],"id":84,"left_children":[1,3,5,-1,-1,7,9,-1,-1,-1,-1],"loss_changes":[1.5032096E-2,8.2184374E-4,7.03923E-3,0E0,0E0,2.5819433E-3,5.846819E-3,0E0,0E0,0E0,0E0],"parents":[2147483647,0,0,1,1,2,2,5,5,6,6],"right_children":[2,4,6,-1,-1,8,10,-1,-1,-1,-1],"split_conditions":[2.8E3,2.018E3,1.904E4,-8.111763E-3,-1.671257E-2,2.015E3,4.9E1,9.053294E-3,-4.058075E-3,-1.152687E-3,2.6490842E-3],"split_indices":[3,2,15,0,0,2,1,0,0,0,0],"split_type":[0,0,0,0,0,0,0,0,0,0,0],"sum_hessian":[3.89E2,1.3E1,3.76E2,1.1E1,2E0,9E0,3.67E2,8E0,1E0,3.27E2,4E1],"tree_param":{"num_deleted":"0","num_feature":"17","num_nodes":"11","size_leaf_vector":"1"}},{"base_weights":[-5.265107E-4,1.496519E-3,-1.2654754E-2,-7.3763315E-4,2.8895617E-2,-4.9767178E-2,-7.752061E-3,1.7135441E-3,-9.996768E-4,5.380241E-3,4.215145E-2,-3.0799487E-3,-3.709059E-2,4.5373538E-3,-4.0257233E-3],"categories":[],"categories_nodes":[],"categories_segments":[],"categories_sizes":[],"default_left":[0,0,0,0,0,0,0,0,0,0,0,0,0,0,0],"id":85,"left_children":[1,3,5,7,9,11,13,-1,-1,-1,-1,-1,-1,-1,-1],"loss_changes":[9.097183E-3,1.9487288E-2,9.257596E-3,4.955528E-3,2.6841821E-2,1.6237743E-2,6.42577E-3,0E0,0E0,0E0,0E0,0E0,0E0,0E0,0E0],"parents":[2147483647,0,0,1,1,2,2,3,3,4,4,5,5,6,6],"right_children":[2,4,6,8,10,12,14,-1,-1,-1,-1,-1,-1,-1,-1],"split_conditions":[4.7E1,4.4E1,2.011E3,1.2E1,2.98E2,4E0,2.013E3,1.7135441E-3,-9.996768E-4,5.380241E-3,4.215145E-2,-3.0799487E-3,-3.709059E-2,4.5373538E-3,-4.0257233E-3],"split_indices":[1,1,2,1,13,9,2,0,0,0,0,0,0,0,0],"split_type":[0,0,0,0,0,0,0,0,0,0,0,0,0,0,0],"sum_hessian":[3.69E2,3.17E2,5.2E1,2.94E2,2.3E1,5E0,4.7E1,8.4E1,2.1E2,2.2E1,1E0,4E0,1E0,9E0,3.8E1],"tree_param":{"num_deleted":"0","num_feature":"17","num_nodes":"15","size_leaf_vector":"1"}},{"base_weights":[7.513541E-5,-5.99311E-3,3.5189847E-3,-1.647605E-3,-4.4123713E-2,1.3719912E-2,8.2787266E-4,1.0151169E-3,-7.3917634E-3,7.7794646E-3,-2.1586731E-2,-1.499192E-3,1.4538605E-2,-1.0523446E-2,1.2729343E-3],"categories":[],"categories_nodes":[],"categories_segments":[],"categories_sizes":[],"default_left":[0,0,0,0,0,0,0,0,0,0,0,0,0,0,0],"id":86,"left_children":[1,3,5,7,9,11,13,-1,-1,-1,-1,-1,-1,-1,-1],"loss_changes":[8.484829E-3,2.428472E-2,7.0986673E-3,1.5468588E-2,3.1112652E-2,3.5357058E-2,2.5410157E-2,0E0,0E0,0E0,0E0,0E0,0E0,0E0,0E0],"parents":[2147483647,0,0,1,1,2,2,3,3,4,4,5,5,6,6],"right_children":[2,4,6,8,10,12,14,-1,-1,-1,-1,-1,-1,-1,-1],"split_conditions":[2.756E4,3.5E3,2.56E2,2.018E3,1.81E2,3.5E3,2.61E2,1.0151169E-3,-7.3917634E-3,7.7794646E-3,-2.1586731E-2,-1.499192E-3,1.4538605E-2,-1.0523446E-2,1.2729343E-3],"split_indices":[15,3,14,2,14,3,14,0,0,0,0,0,0,0,0],"split_type":[0,0,0,0,0,0,0,0,0,0,0,0,0,0,0],"sum_hessian":[4.04E2,1.46E2,2.58E2,1.32E2,1.4E1,5.3E1,2.05E2,1.09E2,2.3E1,4E0,1E1,3.5E1,1.8E1,1.7E1,1.88E2],"tree_param":{"num_deleted":"0","num_feature":"17","num_nodes":"15","size_leaf_vector":"1"}},{"base_weights":[5.295818E-4,7.156959E-3,-3.131594E-3,4.6695853E-4,2.5630198E-2,-2.5721923E-2,-9.260701E-4,4.0412447E-3,-4.480467E-3,3.080794E-3,1.6314127E-2,-1.6567231E-3,-1.6958937E-2,3.3227578E-3,-1.233944E-3],"categories":[],"categories_nodes":[],"categories_segments":[],"categories_sizes":[],"default_left":[0,0,0,0,0,0,0,0,0,0,0,0,0,0,0],"id":87,"left_children":[1,3,5,7,9,11,13,-1,-1,-1,-1,-1,-1,-1,-1],"loss_changes":[9.7522745E-3,1.7660826E-2,1.2880469E-2,2.1431228E-2,1.6223447E-2,1.4000809E-2,9.111059E-3,0E0,0E0,0E0,0E0,0E0,0E0,0E0,0E0],"parents":[2147483647,0,0,1,1,2,2,3,3,4,4,5,5,6,6],"right_children":[2,4,6,8,10,12,14,-1,-1,-1,-1,-1,-1,-1,-1],"split_conditions":[2E1,1.4E1,2.3E1,6E0,5E0,1.83E2,1.9E2,4.0412447E-3,-4.480467E-3,3.080794E-3,1.6314127E-2,-1.6567231E-3,-1.6958937E-2,3.3227578E-3,-1.233944E-3],"split_indices":[1,1,1,0,0,13,13,0,0,0,0,0,0,0,0],"split_type":[0,0,0,0,0,0,0,0,0,0,0,0,0,0,0],"sum_hessian":[4E2,1.42E2,2.58E2,1.05E2,3.7E1,2.2E1,2.36E2,5.7E1,4.8E1,2.5E1,1.2E1,1.4E1,8E0,4.9E1,1.87E2],"tree_param":{"num_deleted":"0","num_feature":"17","num_nodes":"15","size_leaf_vector":"1"}},{"base_weights":[-2.9398932E-4,-8.40737E-3,1.7287431E-3,-3.654893E-2,1.7522176E-4,4.8904292E-2,-6.7587383E-4,-1.8388582E-2,-4.56869E-3,-5.832846E-3,3.371195E-3,2.5198746E-3,3.247843E-2,-4.6153185E-3,5.075029E-4],"categories":[],"categories_nodes":[],"categories_segments":[],"categories_sizes":[],"default_left":[0,0,0,0,0,0,0,0,0,0,0,0,0,0,0],"id":88,"left_children":[1,3,5,7,9,11,13,-1,-1,-1,-1,-1,-1,-1,-1],"loss_changes":[6.332845E-3,1.8604025E-2,3.508574E-2,8.563178E-3,1.32394815E-2,3.515431E-2,1.02988565E-2,0E0,0E0,0E0,0E0,0E0,0E0,0E0,0E0],"parents":[2147483647,0,0,1,1,2,2,3,3,4,4,5,5,6,6],"right_children":[2,4,6,8,10,12,14,-1,-1,-1,-1,-1,-1,-1,-1],"split_conditions":[2.484E4,4E0,1.78E2,1.71E2,1.4E1,1.71E2,2.71E4,-1.8388582E-2,-4.56869E-3,-5.832846E-3,3.371195E-3,2.5198746E-3,3.247843E-2,-4.6153185E-3,5.075029E-4],"split_indices":[15,11,13,13,1,13,15,0,0,0,0,0,0,0,0],"split_type":[0,0,0,0,0,0,0,0,0,0,0,0,0,0,0],"sum_hessian":[3.84E2,7.6E1,3.08E2,1.7E1,5.9E1,1.4E1,2.94E2,7E0,1E1,2.1E1,3.8E1,9E0,5E0,4E1,2.54E2],"tree_param":{"num_deleted":"0","num_feature":"17","num_nodes":"15","size_leaf_vector":"1"}},{"base_weights":[1.6179875E-3,6.8335296E-3,-1.8803584E-3,-4.17395E-3,1.2324841E-2,-7.841158E-2,-5.7525147E-4,1.6057318E-3,-9.532357E-3,3.5164263E-2,3.0688574E-3,-3.2062054E-2,-9.989929E-3,-5.7304148E-3,4.5447017E-4],"categories":[],"categories_nodes":[],"categories_segments":[],"categories_sizes":[],"default_left":[0,0,0,0,0,0,0,0,0,0,0,0,0,0,0],"id":89,"left_children":[1,3,5,7,9,11,13,-1,-1,-1,-1,-1,-1,-1,-1],"loss_changes":[7.2746663E-3,9.7227255E-3,2.3826554E-2,1.4368495E-2,2.2317031E-2,1.577016E-3,9.167429E-3,0E0,0E0,0E0,0E0,0E0,0E0,0E0,0E0],"parents":[2147483647,0,0,1,1,2,2,3,3,4,4,5,5,6,6],"right_children":[2,4,6,8,10,12,14,-1,-1,-1,-1,-1,-1,-1,-1],"split_conditions":[1.92E2,1.48E2,1.71E2,2.018E3,2.8E3,2.011E3,2.14E2,1.6057318E-3,-9.532357E-3,3.5164263E-2,3.0688574E-3,-3.2062054E-2,-9.989929E-3,-5.7304148E-3,4.5447017E-4],"split_indices":[14,14,13,2,3,2,13,0,0,0,0,0,0,0,0],"split_type":[0,0,0,0,0,0,0,0,0,0,0,0,0,0,0],"sum_hessian":[3.97E2,1.59E2,2.38E2,5.3E1,1.06E2,3E0,2.35E2,4E1,1.3E1,1E0,1.05E2,1E0,2E0,2.3E1,2.12E2],"tree_param":{"num_deleted":"0","num_feature":"17","num_nodes":"15","size_leaf_vector":"1"}},{"base_weights":[1.3319338E-3,2.5431633E-2,9.479071E-4,2.0097256E-2,3.7216186E-3,-1.2844086E-2,2.1240094E-3,-7.3943143E-3,5.0927643E-3,-4.833853E-3,2.016678E-3,1.5539033E-2,3.3299986E-4],"categories":[],"categories_nodes":[],"categories_segments":[],"categories_sizes":[],"default_left":[0,0,0,0,0,0,0,0,0,0,0,0,0],"id":90,"left_children":[1,3,5,-1,7,9,11,-1,-1,-1,-1,-1,-1],"loss_changes":[3.5390402E-3,5.164193E-3,6.1911824E-3,0E0,2.2984892E-3,2.0270431E-3,1.7621908E-2,0E0,0E0,0E0,0E0,0E0,0E0],"parents":[2147483647,0,0,1,1,2,2,4,4,5,5,6,6],"right_children":[2,4,6,-1,8,10,12,-1,-1,-1,-1,-1,-1],"split_conditions":[1E0,2.011E3,5E0,2.0097256E-2,2.012E3,2.019E3,6E0,-7.3943143E-3,5.0927643E-3,-4.833853E-3,2.016678E-3,1.5539033E-2,3.3299986E-4],"split_indices":[1,2,1,0,2,2,1,0,0,0,0,0,0],"split_type":[0,0,0,0,0,0,0,0,0,0,0,0,0],"sum_hessian":[3.84E2,5E0,3.79E2,1E0,4E0,2.9E1,3.5E2,1E0,3E0,2.5E1,4E0,6E0,3.44E2],"tree_param":{"num_deleted":"0","num_feature":"17","num_nodes":"13","size_leaf_vector":"1"}},{"base_weights":[1.4576637E-4,4.151673E-3,-3.0344634E-3,-5.1359992E-2,6.3998015E-3,-1.1606261E-3,-3.9042905E-2,-2.5786974E-3,-3.1654168E-2,2.6487008E-2,1.172903E-3,-1.0073482E-3,4.8846724E-3,-7.383538E-3,-1.4090061E-2],"categories":[],"categories_nodes":[],"categories_segments":[],"categories_sizes":[],"default_left":[0,0,0,0,0,0,0,0,0,0,0,0,0,0,0],"id":91,"left_children":[1,3,5,7,9,11,13,-1,-1,-1,-1,-1,-1,-1,-1],"loss_changes":[5.09574E-3,2.2417825E-2,1.5001379E-2,1.5304025E-2,3.4524605E-2,8.218001E-3,1.0193139E-4,0E0,0E0,0E0,0E0,0E0,0E0,0E0,0E0],"parents":[2147483647,0,0,1,1,2,2,3,3,4,4,5,5,6,6],"right_children":[2,4,6,8,10,12,14,-1,-1,-1,-1,-1,-1,-1,-1],"split_conditions":[2E0,1.71E2,4.3E3,1.68E2,1.72E2,